float weight_data_2[28][28] = { 0,0,0,0,0,0,0,0,-3.214983e-05,-8.467506e-06,-1.884868e-05,-7.362305e-06,-1.681892e-06,-1.190604e-06,-1.130227e-05,-3.702381e-06,-9.356438e-09,0,-4.412039e-06,-6.028523e-06,0,-8.364135e-06,-8.102756e-06,0,0,0,0,0,0,0,0,0,-5.853951e-06,0,-4.044975e-06,-1.729771e-04,1.334179e-03,-6.771319e-04,-6.478337e-04,-6.623710e-04,-8.195554e-05,-2.384256e-05,-2.653447e-03,-5.894657e-03,-2.828876e-03,-1.223879e-03,-7.969980e-05,-3.765300e-04,-8.566030e-04,-4.707314e-06,-3.256648e-06,0,0,0,0,0,0,0,-2.250966e-07,-9.928090e-06,-1.633117e-04,5.449532e-05,-1.728718e-03,3.440056e-03,3.236470e-03,4.790604e-04,-1.309647e-04,-1.644121e-03,-5.424576e-04,-1.433186e-04,-1.922743e-03,-3.863270e-03,-4.855231e-03,5.615698e-04,-1.095901e-02,-7.051677e-03,2.243387e-03,8.490976e-03,5.761418e-03,-5.993306e-04,-8.002253e-04,-1.917255e-05,0,0,0,0,-7.282217e-06,-6.221991e-05,-1.173989e-03,2.043506e-03,5.943087e-03,9.666868e-03,9.534059e-03,1.446739e-02,2.137929e-02,-5.060452e-03,-2.802324e-02,-3.241961e-02,-3.229221e-02,2.554205e-03,4.483821e-02,7.857998e-02,7.302411e-02,4.327940e-02,5.411188e-02,5.306621e-02,3.005843e-02,-8.881147e-03,-1.771887e-02,-4.513599e-03,0,0,0,-2.828354e-06,-1.079774e-04,-1.041482e-03,-6.744914e-03,4.735203e-03,2.072046e-02,5.129690e-02,5.716813e-02,5.680149e-02,-7.354657e-03,-6.072116e-02,-9.453684e-02,-1.393735e-01,-1.096942e-01,-3.324276e-03,9.992085e-02,1.945034e-01,2.336432e-01,2.071766e-01,1.819338e-01,1.201441e-01,8.026136e-02,-7.112222e-03,-3.844733e-02,-1.738505e-02,-9.058644e-04,-5.832675e-07,0,-1.104028e-05,-3.165262e-05,8.767578e-04,1.141994e-02,1.863475e-02,4.498986e-02,8.389551e-02,9.917832e-02,1.281644e-01,4.231551e-02,-9.453491e-02,-2.551953e-01,-3.520859e-01,-2.832221e-01,-1.524158e-02,1.424907e-01,2.602649e-01,3.215161e-01,2.255056e-01,1.974507e-01,1.430968e-01,8.812995e-02,-1.992684e-02,-8.275877e-02,-3.211380e-02,-1.587023e-03,-2.492678e-06,0,-1.483424e-04,-3.831564e-04,5.959227e-03,4.402222e-02,6.444810e-02,1.050069e-01,1.877952e-01,1.349627e-01,7.393567e-02,2.112663e-02,-2.018415e-01,-4.607700e-01,-5.140179e-01,-2.772750e-01,3.430601e-02,1.911180e-01,1.906462e-01,2.003067e-01,1.847330e-01,1.746465e-01,1.415710e-01,1.340427e-01,-2.201945e-02,-1.361611e-01,-4.375561e-02,-3.450302e-03,-1.013377e-05,0,-2.927642e-04,1.729123e-03,2.495341e-02,6.553768e-02,1.144133e-01,1.457517e-01,1.274150e-01,1.076314e-01,1.380217e-02,-1.256869e-01,-3.136331e-01,-5.466545e-01,-4.801280e-01,-1.865414e-01,-1.117080e-04,7.534613e-02,1.129201e-01,2.262695e-01,2.581549e-01,2.762919e-01,1.509389e-01,1.382374e-01,-2.252082e-02,-1.596250e-01,-7.821887e-02,-7.065324e-03,-3.113320e-05,0,-5.960546e-05,6.187459e-03,5.995134e-02,1.105928e-01,1.811083e-01,1.653188e-01,1.346589e-01,1.062748e-01,-2.635437e-02,-1.447162e-01,-3.577432e-01,-4.753675e-01,-3.633921e-01,-1.035475e-01,2.045139e-02,1.567582e-02,1.195193e-01,1.686298e-01,2.088538e-01,2.382042e-01,1.329358e-01,1.638801e-01,3.618913e-03,-1.579714e-01,-1.247347e-01,-8.362560e-03,-4.656085e-05,0,-1.023256e-03,1.415874e-02,1.279831e-01,1.901885e-01,2.374082e-01,2.043643e-01,8.050671e-02,9.150054e-02,4.778511e-02,-1.353852e-01,-3.755015e-01,-4.617373e-01,-2.835847e-01,-3.688657e-02,3.580494e-02,9.701899e-02,1.489825e-01,1.607096e-01,2.042103e-01,1.896507e-01,1.944568e-01,1.613678e-01,2.829414e-02,-1.503384e-01,-1.381033e-01,-9.583158e-03,-2.141481e-04,0,-1.474958e-03,6.470193e-03,1.383512e-01,2.246862e-01,2.681527e-01,1.539250e-01,5.474237e-03,1.573503e-01,1.406602e-01,-1.146978e-01,-4.651968e-01,-4.790557e-01,-2.052267e-01,4.882522e-02,3.970569e-02,1.120989e-01,2.134569e-01,2.382346e-01,2.461398e-01,1.427385e-01,1.360818e-01,1.188419e-01,-1.469485e-02,-1.618171e-01,-1.267084e-01,-1.130953e-02,-1.007299e-03,0,-3.864237e-03,5.448924e-03,1.592944e-01,2.708651e-01,2.771210e-01,6.135063e-02,2.250880e-02,1.168309e-01,9.872264e-02,-1.194577e-01,-4.653837e-01,-4.951864e-01,-1.425735e-01,8.920050e-02,1.298647e-02,1.616476e-01,2.607524e-01,2.050658e-01,2.562767e-01,1.760655e-01,8.043673e-02,1.157553e-01,1.691581e-02,-1.134449e-01,-1.193191e-01,-1.767074e-02,-7.020106e-04,-8.791665e-05,-7.037199e-03,1.103373e-03,1.807459e-01,2.764197e-01,2.448281e-01,4.733144e-02,5.594715e-03,4.376777e-02,5.880218e-02,-1.784032e-01,-5.312390e-01,-5.063679e-01,-1.518925e-01,8.152068e-02,9.330850e-02,2.646436e-01,3.055767e-01,2.888622e-01,2.471494e-01,1.190199e-01,2.949682e-02,4.546024e-02,1.127408e-03,-3.861212e-02,-9.220371e-02,-1.477594e-02,-7.414525e-04,-1.261036e-04,-4.202203e-03,8.139742e-03,2.074984e-01,1.997953e-01,2.263981e-01,8.682219e-02,6.356977e-02,6.478403e-02,6.485345e-02,-2.251496e-01,-5.712825e-01,-4.680699e-01,-6.589261e-02,1.872287e-01,1.917924e-01,2.680341e-01,2.640084e-01,2.795641e-01,2.231824e-01,4.480259e-02,4.073493e-02,-2.727522e-02,-7.704187e-02,-3.505967e-02,-7.766863e-02,-1.874386e-02,-7.743639e-04,7.389442e-05,-3.118954e-03,2.195687e-02,1.501197e-01,1.857133e-01,2.218904e-01,9.077593e-02,5.967387e-02,1.211218e-01,1.258591e-01,-9.655397e-02,-4.006414e-01,-3.877872e-01,-7.868899e-02,8.266663e-02,9.730697e-02,1.176226e-01,1.256332e-01,1.467924e-01,1.136625e-01,1.742955e-02,-1.413325e-02,-8.611934e-02,-1.121705e-01,1.146414e-02,-5.452092e-02,-1.634238e-02,-7.791618e-04,3.078934e-06,-1.361965e-03,2.939461e-02,1.063441e-01,1.202293e-01,2.337542e-01,8.813766e-02,5.730699e-03,1.030138e-01,1.593102e-01,-5.649615e-02,-2.921269e-01,-3.364656e-01,-2.222467e-01,-8.616837e-02,3.490484e-02,5.706330e-02,1.229291e-01,4.754582e-02,8.383535e-02,1.919982e-02,-5.110924e-02,-1.055512e-01,-1.238194e-01,-2.310987e-02,-3.371298e-02,-1.602595e-02,-5.378830e-04,0,1.105665e-02,2.400130e-02,1.066711e-01,1.222919e-01,2.469869e-01,7.192653e-02,-1.937893e-02,2.542303e-02,1.342196e-01,2.691623e-02,-1.194543e-01,-2.527960e-01,-2.219402e-01,-8.351082e-02,4.132746e-02,1.513339e-01,9.695453e-02,1.060125e-01,8.828014e-02,4.526016e-02,1.334594e-02,-3.917712e-02,-7.846491e-02,-2.033005e-02,-3.631661e-02,-1.761259e-02,-4.869462e-04,0,4.077067e-03,9.207035e-03,6.175692e-02,9.691727e-02,2.058382e-01,3.278667e-02,-1.383370e-01,-3.596914e-02,4.080875e-02,5.035204e-02,-1.396400e-01,-2.136568e-01,-1.457192e-01,-1.153888e-01,-3.476971e-02,9.442694e-02,4.399127e-02,1.253896e-01,9.911088e-02,1.237298e-02,7.773693e-02,1.213763e-02,-4.245092e-02,3.514882e-03,-4.078161e-02,-1.736218e-02,-5.702729e-04,0,-3.523224e-03,-1.035403e-02,-3.563137e-02,2.061117e-02,1.031050e-01,-5.050904e-04,-7.680603e-02,-6.319232e-02,3.326700e-02,3.106100e-02,-5.757126e-02,-9.682503e-02,-9.340254e-02,-4.696367e-02,-1.130484e-01,-1.810526e-02,6.249346e-02,1.152235e-01,6.899870e-02,1.100419e-01,1.769444e-01,1.441112e-01,8.533525e-02,9.039672e-03,-6.395927e-02,-1.424826e-02,-4.631741e-04,0,-3.215501e-03,-3.149896e-02,-6.823521e-02,-5.892765e-02,-2.281171e-02,-5.586504e-02,-4.055472e-02,2.669065e-02,1.551200e-02,2.034849e-02,5.861521e-02,5.847934e-02,-6.576534e-02,-9.005094e-02,-7.803284e-02,-3.395924e-02,3.969586e-02,7.955100e-02,2.571863e-02,1.590778e-01,2.361767e-01,1.922989e-01,1.606890e-01,-3.870367e-02,-7.333982e-02,-8.401860e-03,-3.022064e-04,0,-2.404244e-03,-1.975099e-02,-8.500668e-02,-9.236694e-02,-5.433394e-02,-8.586427e-02,-6.780515e-02,-1.154444e-02,-1.493118e-02,-8.720740e-04,-2.395017e-02,-4.327184e-02,-7.806642e-02,-4.923528e-02,-1.067548e-01,-2.594513e-02,6.463622e-02,4.803599e-02,6.073379e-02,1.561794e-01,1.253748e-01,1.889863e-01,1.396192e-01,-2.404216e-02,-4.634853e-02,-6.353417e-03,-7.062110e-04,0,-1.463291e-03,-1.862863e-02,-7.055950e-02,-1.356356e-01,-5.578116e-02,-7.353612e-02,-3.820001e-02,-3.397311e-02,-5.339028e-02,-4.860162e-02,-4.665559e-02,-5.097098e-02,-6.903091e-02,-1.042435e-01,-8.424419e-02,1.022731e-01,1.299968e-01,1.397918e-01,1.538100e-01,2.026208e-01,1.705896e-01,1.759455e-01,1.366724e-01,6.865477e-03,-3.733259e-02,-5.973094e-03,-4.257215e-04,0,-1.281486e-04,-1.410543e-02,-5.957389e-02,-1.358573e-01,-1.054831e-01,-1.077023e-01,-3.517379e-02,-6.618106e-02,-5.025249e-02,-5.224720e-02,-7.159612e-02,-1.185597e-01,-1.249037e-01,-1.141972e-01,-1.055687e-01,9.650375e-02,1.834147e-01,2.068662e-01,2.353351e-01,2.410443e-01,2.341775e-01,1.897445e-01,1.030771e-01,7.183672e-03,-2.525697e-02,-1.575251e-03,-1.459207e-03,0,-4.520076e-05,-4.660969e-03,-4.179316e-02,-9.559573e-02,-1.258062e-01,-1.718551e-01,-1.830156e-01,-1.167712e-01,-1.090546e-01,-8.972824e-02,-9.412839e-02,-1.661968e-01,-1.187895e-01,-3.353760e-02,-8.495380e-04,1.368015e-01,2.025138e-01,3.512919e-01,3.081262e-01,2.778117e-01,2.526380e-01,1.497273e-01,6.528395e-02,2.015128e-02,-1.482881e-02,-1.879320e-05,-2.143159e-05,0,0,6.038215e-03,-1.061857e-02,-4.197082e-02,-7.629441e-02,-9.250426e-02,-1.225576e-01,-1.428000e-01,-1.387905e-01,-9.526289e-02,-4.276338e-02,-2.075522e-03,5.986773e-02,9.536648e-02,1.948372e-01,2.666411e-01,3.431148e-01,4.234633e-01,2.959830e-01,2.398002e-01,1.592978e-01,8.244499e-02,4.616165e-02,4.576983e-02,-2.937054e-03,-8.425183e-07,0,0,0,5.047225e-03,2.958043e-03,-3.942388e-03,-1.534550e-02,-2.223711e-02,-3.255059e-02,-5.007322e-02,-4.625338e-02,-3.195570e-02,1.186987e-02,5.716607e-02,1.222702e-01,1.457414e-01,2.081227e-01,2.989713e-01,3.213060e-01,2.433086e-01,1.696665e-01,8.835851e-02,5.225074e-02,2.498031e-02,1.762776e-02,2.360246e-02,2.857750e-03,-4.934917e-06,0,0,0,0,-2.316694e-04,-7.870773e-04,-3.194868e-03,-3.972886e-03,-4.866237e-03,-5.730495e-03,-4.958951e-03,1.529904e-03,4.397085e-03,3.113878e-02,7.180026e-02,7.883638e-02,9.191682e-02,1.205776e-01,7.318230e-02,3.231368e-02,4.725197e-02,1.697595e-02,7.003993e-03,-3.338826e-03,-2.412202e-03,3.220029e-03,3.419778e-03,0,0,0,0,0,0,-5.533402e-04,-8.283250e-04,-9.059881e-05,-2.487095e-04,-5.809063e-04,-3.669654e-04,-1.973470e-04,-5.679836e-05,3.098633e-03,1.978707e-02,2.248422e-03,1.072846e-02,1.488929e-02,5.753816e-03,7.923190e-03,3.705585e-03,-1.941481e-05,-5.343093e-07,-9.864170e-07,0,0,0,0,0 };
