float weight_data_4[28][28] = { 0,0,0,0,0,0,0,0,-4.405324e-05,-2.422678e-04,-2.980236e-04,-4.409098e-05,-1.747817e-06,-7.610486e-08,-2.499470e-05,-9.731528e-06,-8.842429e-06,0,-6.393325e-04,-4.471483e-08,0,-2.791518e-08,-2.704283e-08,0,0,0,0,0,0,0,0,0,-9.482636e-08,0,-4.834179e-07,-1.252771e-04,-1.769318e-03,-1.962269e-03,-2.316298e-03,-6.607317e-03,-1.029121e-02,-6.973143e-03,-3.748901e-03,-7.859068e-06,-4.285060e-06,-5.931752e-06,-1.282614e-06,-1.083135e-03,-3.483501e-05,-3.782070e-06,-4.157891e-08,0,0,0,0,0,0,0,-4.669368e-07,-1.244989e-06,-2.611785e-06,-3.493624e-05,-5.520443e-04,-8.730037e-04,-7.652459e-04,-3.650608e-03,-1.161259e-02,-2.760354e-02,-3.073221e-02,-2.052378e-02,-9.481944e-03,2.307415e-03,-2.587329e-03,-2.315392e-03,-4.109651e-03,-5.187880e-03,-2.933000e-03,-5.638255e-04,-4.437172e-04,-2.314370e-04,-1.510314e-05,-1.759713e-05,0,0,0,0,-1.903533e-04,-6.958261e-04,-2.256743e-04,6.987515e-04,-5.536087e-03,-1.404648e-03,-4.928414e-03,-2.609466e-02,-3.567182e-02,-3.397616e-02,-4.587831e-02,-3.781475e-02,-4.388435e-03,1.667735e-02,-2.173991e-02,-6.096405e-02,-5.371789e-02,-2.546338e-02,-2.735489e-02,-2.208140e-02,-1.844797e-02,-4.900358e-03,-2.625656e-04,-4.673661e-05,0,0,0,-8.792073e-06,-2.855577e-04,-6.000515e-04,2.297898e-03,4.061624e-03,6.184082e-03,1.772943e-02,5.954460e-03,-4.040874e-02,-3.973720e-02,-6.307258e-02,-7.888834e-02,-2.439428e-02,8.183076e-02,7.558805e-02,-2.703354e-02,-6.290014e-02,-7.807516e-02,-7.790825e-02,-7.904869e-02,-5.354249e-02,-3.294866e-02,-1.381688e-02,-6.225164e-03,-2.657982e-03,-6.863346e-04,-3.521203e-07,0,-8.257843e-05,-2.415597e-04,-1.397284e-03,2.565570e-03,1.797936e-02,4.258295e-02,6.039382e-02,3.700294e-02,-2.518986e-02,-7.717775e-02,-7.490127e-02,-4.474986e-02,7.354510e-02,1.841586e-01,1.577199e-01,4.237481e-02,-5.088614e-02,-9.818459e-02,-9.908559e-02,-1.345883e-01,-8.805144e-02,-5.978325e-02,-3.688117e-02,-1.556865e-02,-1.914890e-02,-1.748242e-03,-2.158183e-06,0,-5.757342e-03,-6.079221e-03,-1.244105e-02,-1.100716e-02,2.016046e-02,5.156563e-02,3.105994e-02,-1.576345e-02,-8.474056e-02,-1.088905e-01,-3.843577e-02,6.497787e-02,2.200857e-01,2.795600e-01,2.356906e-01,1.348011e-01,2.942575e-02,-9.366512e-02,-1.613135e-01,-2.056167e-01,-1.873827e-01,-1.075642e-01,-5.304960e-02,-3.509172e-02,-4.563766e-02,-1.558079e-02,-7.405747e-04,0,-1.221331e-02,-2.362027e-02,-2.787373e-02,-2.663325e-02,-2.049208e-03,4.434714e-02,2.371611e-02,-3.495209e-02,-7.031952e-02,-4.252468e-02,1.929963e-02,1.689485e-01,2.851938e-01,3.510478e-01,3.303618e-01,2.717782e-01,1.572109e-01,-2.122244e-02,-2.346848e-01,-3.215172e-01,-2.643708e-01,-1.514589e-01,-7.249049e-02,-4.829163e-02,-7.432571e-02,-3.327501e-02,-4.256273e-03,0,-1.330664e-02,-2.958366e-02,-5.552409e-02,-6.771173e-02,-1.729975e-02,1.155521e-04,-3.323632e-02,-8.800802e-02,-4.421130e-02,6.456245e-05,1.125894e-01,2.537574e-01,3.086164e-01,3.152919e-01,3.071226e-01,3.153746e-01,1.940272e-01,-6.389562e-04,-2.865243e-01,-3.988998e-01,-2.487333e-01,-1.621097e-01,-6.585540e-02,-4.272919e-02,-1.213555e-01,-6.238222e-02,-5.155859e-03,0,-6.639039e-03,-3.499936e-02,-8.588903e-02,-1.104220e-01,-2.672210e-02,-1.153643e-02,-4.766942e-02,-3.633593e-02,-7.819839e-03,1.030322e-01,2.138691e-01,2.278428e-01,2.897516e-01,2.692563e-01,2.585138e-01,2.140793e-01,1.325746e-01,-3.454400e-02,-3.228339e-01,-3.799433e-01,-2.407314e-01,-1.639910e-01,-5.418010e-02,-1.896749e-02,-1.284440e-01,-1.044183e-01,-5.200905e-03,0,-1.092953e-02,-5.904717e-02,-1.140507e-01,-1.714942e-01,-9.811647e-02,-8.408193e-02,-1.337921e-01,-1.516766e-01,-9.990858e-02,5.642015e-02,2.353189e-01,3.622555e-01,4.144499e-01,3.174380e-01,2.012031e-01,4.175199e-02,2.040915e-02,-1.836247e-01,-3.460952e-01,-3.519605e-01,-2.222788e-01,-9.893210e-02,-2.830609e-02,-3.085398e-02,-1.397099e-01,-1.237765e-01,-1.232369e-02,0,-1.836658e-02,-7.782587e-02,-1.417813e-01,-1.978846e-01,-1.503405e-01,-1.929649e-01,-2.382924e-01,-1.871828e-01,-1.148725e-01,4.041265e-02,2.300641e-01,4.499815e-01,5.263124e-01,3.509334e-01,2.040653e-01,6.091927e-03,-1.582654e-02,-1.273198e-01,-2.689895e-01,-2.487908e-01,-1.198381e-01,-6.879621e-02,-1.451406e-02,-1.935297e-02,-2.033788e-01,-1.494886e-01,-8.568203e-03,-1.391424e-03,-3.705149e-02,-1.073379e-01,-1.917376e-01,-2.143630e-01,-1.748731e-01,-2.231649e-01,-3.352272e-01,-2.375950e-01,-1.034960e-01,1.143205e-01,2.253736e-01,3.792751e-01,3.138946e-01,1.841007e-01,1.127743e-01,3.808470e-02,7.788532e-02,5.052523e-02,-2.504384e-01,-2.147096e-01,-1.128102e-01,-8.588926e-02,-7.950082e-02,-1.071775e-01,-2.452887e-01,-1.660528e-01,-8.215865e-03,-3.082141e-03,-2.274105e-02,-9.928010e-02,-2.202632e-01,-2.016720e-01,-1.601068e-01,-2.527646e-01,-3.138451e-01,-2.291636e-01,-1.823268e-01,-1.991047e-01,-3.106766e-01,-9.683067e-02,-5.147700e-02,-5.101632e-02,-4.281924e-02,7.482706e-02,2.331949e-01,1.710522e-01,-1.066831e-01,-2.371150e-01,-1.728322e-01,-9.848507e-02,-6.772662e-02,-1.120964e-01,-2.127637e-01,-1.749280e-01,-1.077651e-02,-3.939626e-05,-8.642567e-03,-8.024774e-02,-1.949499e-01,-2.237896e-01,-8.904047e-02,-2.604636e-01,-3.938560e-01,-4.215950e-01,-4.880296e-01,-5.376880e-01,-4.707922e-01,-2.488207e-01,-7.698941e-02,-3.755864e-02,5.200264e-02,2.585325e-01,4.189634e-01,2.417233e-01,3.066706e-02,-1.168772e-01,-1.108856e-01,-9.297096e-02,-3.791927e-02,-7.734901e-02,-1.986372e-01,-2.050272e-01,-2.150593e-02,-1.641511e-06,-1.432530e-02,-8.036910e-02,-1.792547e-01,-2.309857e-01,-7.991032e-02,-2.821014e-01,-4.277278e-01,-4.524347e-01,-4.094977e-01,-2.426215e-01,-3.965499e-02,1.163659e-01,1.744871e-01,1.481458e-01,2.495165e-01,4.136696e-01,3.829475e-01,2.105023e-01,8.434031e-03,-6.633104e-02,-8.103438e-03,-3.345217e-02,-1.991148e-03,-5.779826e-02,-2.260808e-01,-1.844881e-01,-1.181235e-02,0,-1.707587e-02,-7.247230e-02,-1.397643e-01,-1.574716e-01,-2.136679e-03,-2.211092e-01,-3.773282e-01,-3.353530e-01,-1.322923e-01,1.654836e-02,2.710472e-01,3.153925e-01,2.854792e-01,3.647491e-01,4.329377e-01,3.844137e-01,2.742532e-01,1.276784e-01,-3.516161e-02,-2.714266e-02,-3.292865e-02,-3.733345e-02,2.230301e-02,-3.676607e-02,-2.645178e-01,-1.722632e-01,-1.385741e-02,0,-1.032320e-02,-4.150285e-02,-1.013881e-01,-1.003966e-01,2.168141e-02,-1.414769e-01,-2.319443e-01,-1.677145e-01,-1.822941e-02,8.247066e-02,1.435677e-01,1.548806e-01,2.465075e-01,3.872819e-01,3.395901e-01,2.303565e-01,1.152162e-01,-9.956572e-02,-1.333180e-01,-6.563926e-02,-4.334090e-02,-4.588029e-04,4.198208e-02,-5.110539e-02,-2.542677e-01,-1.517995e-01,-1.264212e-02,0,-6.289181e-03,-3.197689e-02,-7.124701e-02,-7.666480e-02,5.883122e-02,-1.293401e-01,-2.070526e-01,-8.963117e-02,-1.804993e-03,5.086856e-04,-1.750136e-02,4.194254e-02,1.553050e-01,2.294339e-01,1.908391e-01,1.676118e-01,7.682846e-02,-9.527276e-02,-1.364924e-01,-1.219325e-01,-6.492593e-02,4.462570e-02,1.484761e-01,2.420275e-02,-1.885746e-01,-1.389064e-01,-1.443366e-02,0,-6.575293e-03,-1.973249e-02,-2.716390e-02,1.505296e-02,9.909669e-02,-4.314127e-03,-1.213779e-01,-6.932236e-02,-1.672328e-02,1.360278e-02,-4.370242e-02,2.007489e-02,1.136226e-01,2.688611e-01,1.669006e-01,6.892783e-02,-3.219841e-02,-1.186239e-01,-1.569961e-01,-1.319380e-01,-5.458642e-04,1.441048e-01,1.721710e-01,6.800569e-02,-1.469888e-01,-9.818721e-02,-1.022332e-02,0,-5.373231e-03,-1.150658e-02,-8.406934e-03,6.006964e-02,7.822120e-02,-1.134928e-02,-8.806597e-02,-5.919663e-02,-3.191100e-02,-1.077447e-01,-1.442939e-01,-9.379203e-03,1.644806e-01,1.781582e-01,5.346660e-02,8.084831e-02,-2.037461e-02,-7.236706e-02,-1.281996e-01,-9.660764e-02,-8.481001e-03,9.277297e-02,1.494345e-01,5.266345e-02,-8.285306e-02,-4.344244e-02,-2.363974e-03,0,-5.798561e-03,-8.535535e-03,-3.605530e-03,4.171890e-02,7.115502e-02,7.382273e-02,4.167361e-04,-3.072535e-02,-3.650352e-02,-1.168257e-01,-1.290096e-01,1.273786e-02,1.014338e-01,5.836351e-02,-1.448329e-02,2.260276e-02,-2.070358e-02,-8.245814e-02,-1.043161e-01,-5.855814e-02,2.364392e-04,9.435135e-02,9.686874e-02,2.599826e-02,-4.696901e-02,-1.945437e-02,-6.980377e-04,0,-6.231501e-03,-9.207035e-03,-2.931372e-03,5.798035e-02,1.475337e-01,2.159224e-01,1.630592e-01,2.770728e-02,-5.089097e-02,-1.221255e-01,-1.452156e-01,-4.147463e-02,3.723348e-02,3.645863e-02,-6.096486e-03,-7.109367e-02,-1.328114e-01,-1.728216e-01,-1.746789e-01,-1.065909e-01,-4.652131e-02,7.801258e-04,1.296087e-04,-2.685195e-03,-2.125791e-02,-7.710638e-03,-9.897284e-04,0,-1.601421e-03,-5.606786e-03,8.638009e-04,6.208035e-02,1.854513e-01,2.586303e-01,2.068405e-01,6.239400e-02,-7.697908e-02,-1.971981e-01,-1.688585e-01,-8.921696e-02,-2.490614e-02,-1.760538e-02,-5.588381e-02,-9.979796e-02,-1.090076e-01,-1.230846e-01,-1.200282e-01,-8.340155e-02,-3.837642e-02,-3.371757e-02,-2.665872e-02,-1.258628e-02,-1.243519e-02,-3.874385e-04,-2.230292e-04,0,0,-1.414961e-03,-3.653163e-03,3.312785e-02,7.639822e-02,1.068115e-01,7.222003e-02,-1.220860e-03,-1.408714e-01,-1.555922e-01,-1.180033e-01,-4.312389e-02,-4.735108e-02,-5.337028e-02,-1.089521e-01,-8.959519e-02,-8.870502e-02,-8.396137e-02,-6.900692e-02,-3.921640e-02,-2.475050e-02,-1.341098e-02,-9.691749e-03,-9.129141e-03,-7.003097e-03,-1.536422e-04,0,0,0,-3.683641e-04,-6.120377e-04,1.602670e-03,1.511919e-03,1.002788e-02,-2.697310e-03,-2.457160e-02,-8.747587e-02,-9.085274e-02,-4.565841e-02,-8.844161e-03,-1.411992e-03,-2.237961e-02,-4.895015e-02,-4.802248e-02,-5.772404e-02,-5.008631e-02,-2.402598e-02,-2.080756e-02,-1.781105e-02,-7.340556e-03,3.217572e-04,1.284410e-03,-2.268384e-04,-9.084857e-07,0,0,0,0,-6.388275e-05,-1.544899e-03,-4.719527e-03,3.966176e-03,5.676284e-03,-1.803887e-02,-2.681854e-02,-2.439253e-02,-6.703211e-03,-4.581366e-03,-3.717959e-03,-1.357480e-02,4.292237e-03,-1.411246e-02,-8.127111e-03,-1.755851e-03,-1.253458e-03,-5.298575e-04,-2.326625e-04,6.012417e-04,6.044333e-04,-3.948266e-05,-4.159590e-05,0,0,0,0,0,0,-3.461814e-04,-1.157072e-04,-3.928398e-04,-4.241640e-04,-7.611808e-04,-2.255849e-03,-6.137892e-04,-3.429816e-04,-1.682752e-03,-4.857529e-03,-5.255091e-04,-8.122087e-04,-8.795476e-04,-3.301358e-03,-4.489376e-05,-1.451755e-07,-3.469241e-06,-2.231771e-09,-4.120193e-09,0,0,0,0,0 };
