float weight_data_5[28][28] = { 0,0,0,0,0,0,0,0,-1.100094e-06,-2.313779e-05,-3.680644e-05,-1.953379e-05,-2.029017e-06,-1.774253e-07,1.972639e-03,6.343645e-04,-6.596515e-05,0,-7.394064e-05,-1.041790e-07,0,-4.613087e-08,-4.468928e-08,0,0,0,0,0,0,0,0,0,-2.382195e-06,0,-7.295595e-06,-3.892753e-04,-6.746700e-04,-1.248082e-03,-1.564934e-03,-2.767024e-03,-1.961252e-03,-4.743229e-04,-2.507988e-04,-1.263835e-04,-6.951691e-05,-1.580032e-04,-7.176115e-05,-2.307263e-04,-3.679371e-04,-2.089115e-04,-1.089215e-06,0,0,0,0,0,0,0,-4.372129e-07,-1.417446e-06,-7.294097e-05,-1.147808e-03,-3.191436e-04,-6.402018e-03,-7.722238e-03,-4.470852e-03,-4.242089e-03,-5.293202e-03,-4.858646e-03,-1.914002e-03,-9.469612e-04,-1.284730e-03,-2.735937e-03,-4.492029e-03,-5.667061e-03,-6.030501e-03,-2.820035e-03,-4.714465e-03,-3.713489e-03,-6.391061e-04,-1.384774e-04,-1.793624e-06,0,0,0,0,-6.773689e-06,5.804960e-05,-1.461658e-03,-8.132230e-03,-2.680098e-02,-4.199480e-02,-4.920398e-02,-4.965752e-02,-4.321402e-02,-3.861901e-02,-1.671436e-02,-4.904013e-04,6.094597e-05,-5.558092e-03,2.704683e-03,1.064406e-02,2.946559e-03,-9.885151e-03,-6.698828e-03,-2.388921e-03,-4.706727e-03,-2.359569e-04,3.288958e-03,4.391032e-03,0,0,0,-2.482963e-07,-7.228629e-06,2.137370e-03,-9.326114e-03,-3.360259e-02,-6.811507e-02,-1.339941e-01,-1.703275e-01,-1.352351e-01,-6.306564e-02,-2.356047e-02,1.013864e-02,2.674538e-02,9.594719e-03,-1.460792e-02,-1.095263e-02,2.650921e-02,8.356185e-02,7.994832e-02,2.654988e-02,3.300694e-02,3.807535e-02,2.181220e-02,-4.944793e-03,4.632289e-03,-9.753983e-04,-3.323611e-07,0,-7.368905e-07,-3.399353e-06,-3.732676e-03,-3.527078e-02,-7.774224e-02,-9.598025e-02,-1.460017e-01,-1.705837e-01,-1.452332e-01,-5.472961e-02,1.977269e-02,7.111994e-02,9.258751e-02,-8.909019e-04,-1.042117e-01,-9.137381e-02,8.048406e-02,1.731559e-01,1.874231e-01,1.491044e-01,1.156006e-02,-1.892933e-02,3.178871e-02,-1.233904e-02,-1.047574e-02,-2.419121e-03,-4.766376e-06,0,-2.503490e-06,-1.775652e-04,-3.401986e-03,-4.668067e-02,-1.037763e-01,-9.469227e-02,-1.125546e-01,-1.234401e-01,-7.106242e-02,2.670405e-02,1.609908e-01,1.977270e-01,9.703062e-02,-3.334895e-04,-1.099384e-01,-1.104418e-01,1.580437e-01,3.639361e-01,3.173248e-01,1.986070e-01,8.448689e-02,-6.016125e-02,-2.688631e-02,-1.458923e-02,-1.446806e-02,-5.474531e-03,-1.198792e-05,0,-5.616364e-06,-1.811655e-03,-1.133660e-02,-6.534428e-02,-8.396254e-02,-3.469928e-02,8.874397e-03,-3.911058e-02,4.722855e-02,1.593087e-01,1.719742e-01,1.430666e-01,1.304644e-01,2.016446e-02,-1.324064e-01,-2.588115e-01,-1.231380e-01,1.597157e-01,2.244313e-01,1.220637e-01,1.219608e-01,-1.313447e-02,-4.707527e-02,1.059272e-02,-8.662581e-03,-1.445998e-02,-1.064781e-04,0,-1.396179e-04,-2.064138e-03,-1.410402e-02,-1.110408e-01,-6.225650e-02,2.300106e-02,1.053424e-01,1.204291e-01,1.970174e-01,2.633164e-01,1.914178e-01,1.281278e-01,9.511655e-02,9.428579e-02,-5.172542e-03,-2.877859e-01,-3.058150e-01,-6.303049e-02,2.127066e-01,2.441644e-01,1.763062e-01,8.342887e-02,3.189382e-02,1.335955e-02,9.026885e-04,-1.728787e-02,-3.840915e-04,0,-5.274837e-04,-2.983551e-03,-2.456395e-02,-1.116355e-01,-1.359188e-02,7.118459e-02,1.279812e-01,1.115597e-01,1.658062e-01,3.035414e-01,1.772653e-01,3.039674e-02,9.004403e-02,1.745146e-01,1.291479e-01,-2.214811e-01,-3.212088e-01,-1.807559e-01,9.567578e-02,2.106771e-01,1.753314e-01,1.265814e-01,8.322231e-02,1.175594e-01,5.715942e-02,-1.059374e-02,-6.840549e-04,0,-5.025648e-04,-7.089873e-03,-2.375450e-02,-8.293336e-02,1.623750e-02,9.795178e-02,1.775892e-01,1.256842e-01,1.772860e-01,2.687807e-01,1.779252e-01,1.818438e-01,2.649584e-01,3.039555e-01,1.354673e-01,-1.230583e-01,-3.168906e-01,-2.120860e-01,6.587871e-03,1.105509e-01,1.115779e-01,7.867375e-02,1.489143e-01,1.240203e-01,7.817234e-02,-4.496811e-03,4.471410e-04,0,-2.510429e-04,-1.503959e-02,-4.292237e-02,-7.308704e-02,5.062858e-02,7.678011e-02,1.460229e-01,1.303434e-01,2.572328e-01,3.222703e-01,2.742985e-01,3.490698e-01,3.211113e-01,1.863030e-01,1.233358e-01,-8.260401e-02,-2.805849e-01,-2.276282e-01,1.876859e-02,1.555968e-01,1.150233e-01,1.163031e-01,1.593205e-01,1.654787e-01,1.291967e-01,1.359040e-02,2.081524e-03,-8.329337e-06,-1.104259e-03,-1.944363e-02,-4.805669e-02,-1.048724e-01,7.084089e-03,1.717882e-02,3.129915e-02,4.604004e-02,2.053244e-01,3.570494e-01,3.592226e-01,3.809986e-01,3.360429e-01,1.823202e-01,1.244544e-01,-6.497361e-02,-3.071968e-01,-1.567001e-01,7.983001e-02,7.837813e-02,6.774985e-02,1.746543e-01,1.685121e-01,1.902412e-01,1.531643e-01,1.086157e-02,5.883489e-04,-1.828591e-05,-1.293058e-03,-2.330137e-02,-5.435703e-02,-1.397911e-01,-5.927399e-02,-5.744660e-03,-3.531529e-02,-4.850395e-02,3.861989e-02,2.430296e-01,4.258788e-01,3.259675e-01,2.012230e-01,9.666036e-02,-2.799495e-02,-1.405777e-01,-2.772087e-01,-7.922388e-02,7.352625e-02,5.875637e-02,1.609357e-02,2.079051e-01,1.060658e-01,2.331177e-01,1.595685e-01,-8.755293e-03,-2.247004e-03,-5.289871e-08,-1.006712e-03,-2.616012e-02,-2.240966e-02,-6.702431e-02,-7.925231e-02,4.048388e-02,5.708031e-02,-1.010512e-01,-1.073276e-01,6.913510e-02,1.288362e-01,2.273117e-02,-2.471672e-02,-5.625552e-02,-2.144755e-01,-1.996749e-01,-1.821904e-01,-6.475590e-03,6.401793e-02,-2.239700e-02,2.473874e-02,1.351027e-01,1.035177e-01,2.104237e-01,1.152098e-01,-1.959461e-02,-4.454354e-03,-2.204112e-09,-1.098115e-03,-1.873946e-02,2.780520e-02,8.251883e-02,-6.606489e-02,-4.673046e-02,-5.850867e-02,-1.714860e-01,-2.265691e-01,-6.054461e-02,-7.756062e-02,-1.552169e-01,-2.351604e-01,-1.778205e-01,-2.289687e-01,-1.491968e-01,-9.666502e-02,-1.159092e-02,6.896762e-02,-1.791901e-02,3.766629e-02,9.407932e-02,8.764721e-02,1.943160e-01,1.282260e-01,-7.638578e-04,-2.722812e-03,0,-1.153577e-03,-6.229393e-03,2.285904e-02,1.190066e-01,1.383991e-02,-4.861336e-02,3.127731e-02,-1.118248e-01,-2.362210e-01,-1.292659e-01,-1.630136e-01,-3.316358e-01,-3.552523e-01,-2.510202e-01,-1.844202e-01,-1.457351e-01,-1.808819e-02,1.319700e-02,1.323151e-02,5.467988e-02,3.983413e-02,1.302092e-01,1.258889e-01,1.051176e-01,1.087753e-01,-3.900507e-03,-2.514098e-03,0,-7.789077e-04,1.168489e-02,5.992291e-02,1.347305e-01,5.810111e-02,1.820377e-02,6.816432e-02,-6.629867e-02,-1.792174e-01,-2.281705e-01,-2.164300e-01,-3.177984e-01,-2.480717e-01,-2.192241e-01,-1.521980e-01,-8.192514e-02,4.527254e-02,7.451768e-02,-5.143606e-03,8.129749e-02,8.841146e-02,7.946323e-02,5.527413e-02,7.517705e-02,7.491352e-02,-6.250425e-03,-3.060539e-03,0,-8.875139e-04,1.221173e-02,1.037518e-01,1.316765e-01,6.569903e-02,5.866629e-02,5.388476e-02,-2.616391e-02,-8.703427e-02,-2.280329e-01,-2.401699e-01,-2.595333e-01,-1.695812e-01,-1.464867e-01,-2.536727e-02,-3.183679e-02,7.999747e-02,-7.919720e-03,1.413607e-02,1.204224e-01,3.011854e-02,6.863462e-02,-2.659672e-02,4.749358e-02,3.480358e-02,-9.920534e-03,-3.376411e-03,0,-6.410349e-04,2.664550e-03,9.739063e-02,6.293098e-02,3.347736e-02,8.970958e-02,8.207107e-02,2.424722e-02,-1.640494e-02,-1.799212e-01,-3.489230e-01,-3.150411e-01,-9.699807e-02,-1.263621e-01,-8.999402e-02,2.703684e-03,8.049271e-02,6.724154e-02,5.676083e-02,6.042513e-02,-1.079613e-02,9.895018e-02,4.521467e-02,2.542234e-03,2.534459e-02,1.321254e-03,-2.432494e-03,0,-5.056572e-04,-9.513473e-03,7.895839e-02,-1.016765e-02,8.499825e-02,9.830268e-02,7.043021e-02,1.044927e-01,4.866862e-02,-8.433115e-02,-4.222771e-01,-3.897309e-01,-9.951548e-02,-9.948635e-03,-6.528090e-02,1.243497e-03,7.176022e-02,1.082895e-01,9.668264e-02,2.428431e-02,1.105512e-01,1.261531e-01,5.617837e-02,-2.987503e-03,1.351943e-02,1.115631e-02,-1.858317e-03,0,-1.458941e-04,-8.016767e-03,5.755792e-02,7.764941e-02,9.332377e-02,7.923508e-02,7.746233e-02,1.248126e-01,1.956343e-01,8.538282e-03,-3.744313e-01,-4.975381e-01,-2.454079e-01,-6.383127e-02,-1.012672e-02,-7.633912e-03,3.104194e-02,4.924337e-02,5.913664e-02,8.785115e-02,1.987691e-01,9.151964e-02,2.430028e-03,2.250693e-03,3.286169e-02,1.038213e-02,-6.197246e-04,0,-5.925632e-06,-3.423811e-03,2.379589e-02,9.242335e-02,1.795317e-01,2.016867e-01,1.538402e-01,1.712279e-01,2.760156e-01,1.045500e-01,-3.308665e-01,-5.483075e-01,-3.382033e-01,-1.155031e-01,-2.502118e-02,4.428165e-02,2.240722e-02,6.334618e-02,7.965879e-02,1.992055e-01,1.845038e-01,9.189077e-02,1.727586e-02,3.406604e-02,4.405446e-02,4.423360e-03,-5.447045e-04,0,-3.421584e-06,-5.703342e-03,-1.794584e-02,1.016349e-01,2.304555e-01,3.626629e-01,3.811151e-01,4.697916e-01,5.335534e-01,3.549390e-01,-1.100388e-01,-4.159480e-01,-3.519269e-01,-1.694524e-01,-3.347747e-02,5.938715e-02,8.401129e-02,1.064283e-01,1.302950e-01,1.320209e-01,1.077321e-01,6.292959e-02,3.593896e-02,2.902029e-02,3.252707e-02,8.512030e-05,-1.217640e-04,0,0,-3.920406e-03,-1.553256e-02,7.822970e-02,1.893077e-01,3.965930e-01,5.070315e-01,6.725615e-01,7.715248e-01,6.028209e-01,1.118980e-01,-2.424820e-01,-2.119561e-01,-1.137497e-01,-3.813609e-02,8.910574e-03,5.580971e-02,9.050227e-02,8.452117e-02,4.843457e-02,3.539139e-02,2.937989e-02,2.126896e-02,1.663091e-02,1.830179e-02,-1.854706e-06,0,0,0,-5.393912e-04,5.686142e-03,1.945006e-02,9.368268e-02,2.169045e-01,3.624334e-01,4.537179e-01,5.271826e-01,4.990831e-01,2.107318e-01,2.959165e-03,-3.571827e-02,-4.267974e-02,-2.623121e-02,-2.402188e-02,-2.568482e-02,-1.317026e-02,1.511974e-03,1.567999e-02,2.138576e-02,1.628109e-02,7.418576e-03,-3.055670e-03,-6.440546e-06,-8.400939e-07,0,0,0,0,1.259518e-03,2.302320e-03,3.157867e-02,8.298077e-02,8.358354e-02,1.052826e-01,1.084791e-01,1.192902e-01,5.945083e-02,2.296113e-02,-5.490681e-04,-4.937176e-03,-8.965967e-03,-1.029513e-02,-5.142202e-03,-3.024566e-03,-5.319099e-03,-1.250782e-03,4.382950e-04,3.752528e-03,2.186085e-03,-5.073075e-05,-3.020271e-06,0,0,0,0,0,0,-2.654627e-04,2.735807e-03,1.110826e-02,8.898433e-03,6.866095e-03,7.327848e-03,3.675220e-03,1.599070e-03,-3.927456e-04,-3.164552e-03,-1.419805e-04,-1.489860e-03,-2.614752e-03,-4.337882e-04,-9.521251e-04,-3.826070e-04,6.808819e-05,-1.422736e-06,-2.626589e-06,0,0,0,0,0 };
