float weight_data_9[28][28] = { 0,0,0,0,0,0,0,0,-6.930692e-04,-6.494539e-04,-1.059024e-03,-6.103489e-04,-8.069831e-04,-2.294750e-06,-8.839627e-04,-2.927723e-04,-1.904706e-05,0,1.436548e-04,-2.704804e-07,0,-4.119574e-07,-3.990837e-07,0,0,0,0,0,0,0,0,0,-4.525417e-09,0,-3.866104e-05,-1.351256e-03,-2.539011e-03,-3.936161e-03,-5.561664e-03,-8.827070e-03,-1.092304e-02,-5.095581e-03,-1.867463e-03,-1.818130e-05,-1.500443e-04,-2.135167e-04,-5.226373e-05,-1.575110e-03,-1.047964e-03,-9.401045e-05,-3.431697e-06,0,0,0,0,0,0,0,-4.345382e-07,-1.025784e-06,-7.588300e-07,-3.986703e-06,-1.182111e-03,-3.825123e-03,-1.516762e-02,-2.266694e-02,-2.990822e-02,-4.106795e-02,-4.075466e-02,-2.923577e-02,-1.578004e-02,-1.209929e-02,-7.614306e-03,-1.150253e-02,-8.319676e-03,-7.619740e-03,-5.762749e-03,-3.323723e-03,-4.445256e-03,-2.403390e-03,-2.944966e-04,4.714838e-04,0,0,0,0,-3.230678e-05,-1.270946e-04,-9.783779e-05,-1.087830e-03,-5.464027e-03,-1.882886e-02,-5.312721e-02,-5.791654e-02,-5.847443e-02,-4.925804e-02,-2.713369e-02,-6.510505e-03,1.572957e-02,9.296295e-03,-2.345421e-03,-2.792018e-02,-5.100896e-02,-4.711315e-02,-3.752204e-02,-2.461654e-02,-1.324247e-02,-4.864352e-03,-3.699151e-03,-2.916256e-03,0,0,0,-1.625988e-06,-1.857147e-05,-7.814550e-05,-3.548162e-04,-4.282857e-03,-2.301514e-02,-6.971025e-02,-1.100307e-01,-1.325039e-01,-8.569093e-02,9.443498e-03,1.046841e-01,1.847089e-01,1.497522e-01,8.449427e-02,4.593661e-02,-4.316004e-02,-8.692131e-02,-9.649415e-02,-7.186735e-02,-5.032933e-02,-3.461085e-02,-3.336859e-02,-9.021168e-04,5.563904e-03,1.187027e-02,-6.119478e-05,0,-5.768797e-06,-8.760449e-06,-1.576739e-04,-2.674717e-03,-1.776746e-02,-7.797827e-02,-1.508057e-01,-1.626264e-01,-1.035918e-01,1.068590e-02,1.442056e-01,2.296035e-01,2.729903e-01,1.766459e-01,7.806842e-02,-1.007445e-03,-9.052018e-02,-1.359626e-01,-1.291043e-01,-9.467159e-02,-7.749169e-02,-8.952858e-02,-6.019255e-02,5.517334e-03,5.743161e-02,2.943465e-02,-1.755093e-04,0,-5.344146e-05,-2.493363e-04,-6.958053e-04,-4.519104e-03,-4.134030e-02,-1.199185e-01,-1.994991e-01,-1.519241e-01,-5.578112e-03,1.087584e-01,1.750301e-01,2.256597e-01,2.018742e-01,1.666232e-01,4.264312e-02,-5.942544e-02,-9.939158e-02,-1.370975e-01,-1.592883e-01,-1.762600e-01,-1.486155e-01,-1.335358e-01,-8.181143e-02,1.719144e-02,7.779349e-02,5.542896e-02,4.486268e-04,0,-1.202525e-04,-1.112929e-03,-2.708338e-03,-1.105721e-02,-6.102345e-02,-1.621090e-01,-2.302935e-01,-1.660649e-01,2.500659e-04,7.685217e-02,1.721745e-01,1.843206e-01,1.586742e-01,1.145912e-01,6.048305e-02,1.966660e-02,-1.819320e-04,-1.243246e-01,-1.649773e-01,-2.566907e-01,-2.113324e-01,-1.732205e-01,-8.383319e-02,6.568620e-02,1.099307e-01,5.978296e-02,3.144543e-03,0,-3.706159e-04,-1.803393e-03,-5.895359e-03,-2.190768e-02,-8.196302e-02,-1.749963e-01,-1.523159e-01,-1.680051e-02,1.375014e-02,1.545059e-01,2.779950e-01,1.726501e-01,1.463628e-01,1.069960e-01,9.649107e-02,9.958190e-02,6.634436e-02,-5.336580e-02,-1.787267e-01,-2.685240e-01,-2.179699e-01,-1.144150e-01,-1.710614e-02,7.077892e-02,1.221463e-01,7.229708e-02,1.629323e-03,0,-6.435875e-04,-2.605451e-03,-9.563094e-03,-4.308533e-02,-1.154298e-01,-1.386454e-01,-8.980699e-02,-5.405055e-02,2.036268e-02,1.069054e-01,1.590893e-01,2.308135e-01,7.891910e-02,4.381825e-02,2.587000e-02,2.720650e-03,6.309580e-02,-7.294060e-03,-2.144036e-01,-3.201018e-01,-2.206808e-01,-1.148221e-01,-8.474566e-02,-9.384467e-03,9.693266e-02,1.155770e-01,2.091217e-03,0,-7.599854e-04,-4.760813e-03,-1.543833e-02,-5.820661e-02,-8.136529e-02,-7.860041e-02,-3.175095e-02,-2.445078e-02,6.973956e-02,1.417847e-01,2.154380e-01,1.672398e-01,7.435366e-02,-1.077636e-03,4.412920e-02,8.107400e-02,1.065455e-01,8.006393e-02,-2.074620e-01,-3.701412e-01,-2.650226e-01,-1.078845e-01,-1.406624e-02,1.431299e-02,1.240618e-01,1.479625e-01,3.257514e-03,0,-1.919210e-03,-7.766990e-03,-2.350352e-02,-8.177155e-02,-1.276365e-02,2.888226e-02,6.320052e-02,-3.176758e-02,5.031779e-02,1.692377e-01,1.814502e-01,3.685630e-02,-5.767108e-02,-5.777963e-02,2.410330e-02,7.598108e-02,7.291429e-02,3.455978e-02,-2.430142e-01,-4.048178e-01,-3.047530e-01,-1.011363e-01,-5.426550e-02,-2.439502e-02,8.221217e-02,1.427654e-01,1.444088e-03,-1.090844e-04,-3.934570e-03,-1.232706e-02,-3.371368e-02,-1.158950e-01,-2.641690e-02,8.656354e-02,2.154989e-01,-3.485173e-02,3.748067e-02,7.821678e-02,-5.966240e-02,-1.794044e-01,-1.425851e-01,-6.341043e-02,-2.409212e-02,-3.875045e-02,-2.046788e-02,-1.343458e-01,-2.237672e-01,-3.576453e-01,-2.471231e-01,-4.539466e-02,-4.092572e-02,-7.501290e-02,9.597564e-02,2.006480e-01,3.089072e-03,-2.426482e-04,-2.084188e-03,-1.524404e-02,-4.762352e-02,-1.397481e-01,-3.293467e-02,2.061435e-01,3.433369e-01,1.281126e-01,4.723573e-02,-1.112712e-01,-1.235081e-01,-1.751509e-02,3.686319e-02,-1.865093e-02,-1.145094e-01,-1.800330e-01,-1.119072e-01,-1.199514e-01,-1.523267e-01,-1.490752e-01,-1.859736e-01,-1.143334e-01,-9.702724e-02,-1.086863e-01,1.216035e-01,2.001239e-01,-1.850205e-02,-4.218709e-06,-1.877399e-03,-1.715184e-02,-6.234809e-02,-1.854108e-01,-1.371701e-01,2.120426e-01,4.717396e-01,3.000709e-01,1.408432e-01,-4.357735e-02,-5.069546e-02,1.596349e-01,1.702020e-01,2.421004e-02,-1.307662e-01,-1.157996e-01,-5.792750e-02,4.585743e-02,-1.146221e-01,-1.870452e-01,-1.886921e-01,-8.292925e-02,-7.955956e-02,-1.270375e-01,1.321288e-01,2.276687e-01,-4.853069e-03,-1.757795e-07,-3.804884e-03,-1.869696e-02,-7.285192e-02,-2.325077e-01,-2.051374e-01,1.690891e-01,4.921291e-01,2.719044e-01,1.626257e-01,-6.095866e-02,7.248406e-02,2.074796e-01,2.134002e-01,1.552459e-01,1.219945e-01,8.385648e-02,1.552703e-01,5.313214e-02,-1.198088e-01,-1.620708e-01,-2.052760e-01,-1.914008e-01,-1.925455e-01,-5.977286e-02,1.181750e-01,1.512720e-01,-1.550738e-02,0,-7.600352e-03,-2.097829e-02,-6.760721e-02,-2.451698e-01,-3.195905e-01,1.559502e-01,4.368087e-01,1.725368e-01,1.950749e-02,-4.580513e-02,1.208399e-01,2.527415e-01,3.563510e-01,3.339585e-01,2.679341e-01,2.208969e-01,7.140743e-02,-8.724678e-02,-1.275637e-01,-1.310989e-01,-1.624842e-01,-1.694080e-01,-1.444560e-01,-1.639714e-02,1.847162e-01,1.329719e-01,-1.972901e-02,0,-4.646459e-03,-1.455992e-02,-5.035906e-02,-1.913815e-01,-3.064429e-01,1.136946e-01,2.686259e-01,7.030225e-02,-6.160859e-03,3.755116e-02,2.408472e-01,3.056583e-01,3.345847e-01,2.822882e-01,2.834555e-01,1.628840e-01,8.029540e-03,-1.204266e-01,-1.509702e-01,-1.299026e-01,-2.047733e-01,-1.970775e-01,-1.187478e-01,9.542502e-02,2.150660e-01,9.781646e-02,-2.647128e-02,0,-1.104703e-03,-9.686559e-03,-3.287288e-02,-1.392129e-01,-2.629805e-01,7.188222e-02,1.510691e-01,5.958099e-02,4.382536e-02,5.452447e-02,2.225464e-01,2.996848e-01,2.722267e-01,1.728175e-01,1.016579e-01,1.702506e-02,-8.532830e-02,-1.206916e-01,-1.209202e-01,-1.683042e-01,-2.043376e-01,-1.756956e-01,-8.549861e-02,1.326481e-01,2.433024e-01,1.084557e-01,-2.578380e-02,0,-5.755403e-04,-8.398508e-03,-2.821001e-02,-1.124617e-01,-2.175425e-01,-3.385296e-02,5.620398e-02,-3.852828e-02,-2.064658e-02,-5.126828e-03,2.024103e-01,3.361042e-01,3.108807e-01,9.810561e-02,2.359802e-02,-6.446799e-02,-1.154999e-01,-6.327217e-02,-4.881424e-02,-6.906306e-02,-1.340361e-01,-1.745434e-01,-3.706418e-02,1.629058e-01,2.609678e-01,9.772157e-02,-1.083010e-02,0,-6.723080e-04,-5.526611e-03,-2.194546e-02,-8.313697e-02,-2.026340e-01,-8.658620e-02,2.117926e-02,-6.243265e-02,-4.816924e-02,1.912102e-02,3.055131e-01,3.613428e-01,2.739658e-01,1.247437e-01,1.099886e-03,-1.012695e-01,-1.339394e-01,-9.208615e-02,-6.372275e-02,-8.357738e-02,-7.581976e-02,-4.687613e-02,5.112184e-02,2.094459e-01,2.441829e-01,7.746761e-02,3.155560e-03,0,-3.204156e-04,-3.558247e-03,-1.293920e-02,-6.345500e-02,-1.751362e-01,-1.665583e-01,-5.752464e-02,4.783278e-03,-7.939216e-02,2.757744e-02,2.582772e-01,3.110934e-01,2.230045e-01,3.550895e-02,-1.131449e-01,-2.250583e-01,-2.063143e-01,-1.758446e-01,-1.601630e-01,-1.361732e-01,-5.916307e-02,7.493452e-03,1.244152e-01,2.055845e-01,1.841789e-01,4.538162e-02,4.125637e-03,0,-1.051634e-04,-1.275536e-03,-4.947008e-03,-3.639180e-02,-1.548369e-01,-2.216478e-01,-2.091605e-01,-1.344602e-01,-9.997325e-02,-3.328134e-03,1.548653e-01,2.039279e-01,6.344582e-02,-8.862972e-02,-1.929899e-01,-2.004025e-01,-2.205569e-01,-1.988589e-01,-1.514220e-01,-1.071818e-01,-4.718683e-02,4.301629e-02,1.293272e-01,1.350712e-01,6.741080e-02,5.342648e-03,3.461563e-03,0,-4.118871e-05,-4.645304e-04,-2.120298e-03,-1.628987e-02,-9.819430e-02,-1.960688e-01,-2.364015e-01,-2.022823e-01,-1.659474e-01,-8.238307e-02,-1.851862e-02,3.837625e-02,-8.466902e-02,-1.710654e-01,-1.938176e-01,-2.107861e-01,-2.025206e-01,-1.836619e-01,-1.190125e-01,-6.227938e-02,-7.841449e-03,5.212726e-02,7.197301e-02,7.368733e-02,2.452408e-02,1.747798e-03,-5.094145e-04,0,0,-1.730566e-04,-8.663736e-04,-5.479770e-03,-4.156534e-02,-1.105045e-01,-1.567845e-01,-1.382223e-01,-1.308175e-01,-1.120057e-01,-7.352258e-02,-7.057760e-02,-1.068708e-01,-1.252546e-01,-1.261873e-01,-1.290110e-01,-1.264269e-01,-1.034357e-01,-5.822295e-02,-1.195999e-02,1.491384e-02,1.706483e-02,1.804139e-02,-3.774300e-03,-3.821327e-03,1.760029e-04,0,0,0,-1.291644e-05,-1.235705e-04,-1.439633e-03,-1.183378e-02,-3.962374e-02,-5.981915e-02,-6.101710e-02,-5.865198e-02,-5.379040e-02,-3.557526e-02,-3.537098e-02,-5.103664e-02,-3.995236e-02,-3.906742e-02,-3.993173e-02,-2.973168e-02,-2.619360e-02,-1.483790e-02,1.090956e-03,-3.008925e-03,-1.903688e-03,-3.522683e-03,-6.862809e-03,-1.733917e-03,-7.559665e-06,0,0,0,0,-1.770094e-06,-2.526919e-04,-1.957141e-03,-1.092987e-02,-1.336766e-02,-1.275531e-02,-1.680114e-02,-1.542554e-02,-9.797303e-03,-1.010212e-02,-1.259236e-02,-4.421154e-03,-1.270476e-02,-8.630487e-03,-4.347940e-03,-1.328399e-03,-3.574532e-03,-2.374460e-03,-3.581909e-03,-9.488380e-04,-1.226304e-03,-2.825564e-03,-2.996040e-03,0,0,0,0,0,0,-1.823287e-05,-2.942793e-05,-2.130813e-04,-5.408997e-04,-1.445837e-03,-8.642004e-04,-1.371944e-03,-5.818321e-04,-4.614168e-04,-5.916516e-04,-1.459374e-05,-8.985847e-04,-2.315390e-04,-4.004166e-04,-1.493602e-04,-5.150926e-07,-2.862324e-06,-5.927627e-09,-1.094331e-08,0,0,0,0,0 };
