float weight_data_0[28][28] = { 0,0,0,0,0,0,0,0,2.051176e-03,-8.042804e-06,-1.668805e-05,-9.337025e-06,-1.564035e-06,-3.681635e-09,-5.961566e-05,-1.987746e-05,-2.041674e-06,0,-1.373460e-05,-2.071099e-08,0,-1.780735e-09,-1.725087e-09,0,0,0,0,0,0,0,0,0,-1.992065e-08,0,-1.669674e-06,-1.308527e-04,-2.588785e-04,-6.701241e-04,-1.067909e-03,1.860045e-04,-1.495948e-04,5.459947e-04,-2.912691e-05,-4.865399e-05,-2.512261e-05,-5.627555e-05,-1.261549e-05,1.316771e-03,3.371728e-03,-6.142793e-05,-2.715047e-07,0,0,0,0,0,0,0,-3.929168e-08,-9.381963e-08,-8.592009e-06,-1.064128e-04,-5.033205e-04,-2.686281e-04,-5.945725e-04,-8.985855e-04,2.927189e-03,-2.288675e-03,-2.666346e-03,-2.046400e-03,-1.290396e-03,-9.268483e-04,-1.584310e-03,-3.296811e-03,-3.779280e-03,-2.970824e-03,-2.523946e-03,-3.840638e-03,-1.592502e-03,-4.036514e-04,-1.042259e-03,-9.036194e-06,0,0,0,0,2.761692e-04,6.076418e-04,-9.296679e-05,-9.109260e-04,-1.478246e-03,-3.117225e-03,-6.189609e-03,-7.993257e-03,-1.212338e-02,-1.469821e-02,-1.658742e-02,-1.409359e-02,-2.229095e-02,-2.865551e-02,-3.082828e-02,-4.067961e-02,-5.834502e-02,-4.922353e-02,-3.990912e-02,-2.830642e-02,-2.093375e-02,-9.021696e-03,-1.961003e-03,-1.010537e-04,0,0,0,-2.205198e-08,9.518999e-05,-1.862762e-03,-3.249332e-03,-8.572950e-03,-1.437682e-02,-2.488699e-02,-4.059415e-02,-4.264260e-02,-4.332225e-02,-7.961453e-02,-8.117931e-02,-5.761116e-02,-3.856402e-02,-6.528536e-04,1.465954e-02,5.836455e-03,-2.136582e-02,-3.376495e-02,-1.728698e-02,-3.318593e-02,-6.653365e-02,-4.486044e-02,-8.929689e-03,-2.165622e-03,-3.607407e-04,-1.433307e-06,0,-1.544403e-07,-4.452586e-05,-1.100778e-02,-1.986995e-02,-2.879104e-02,-2.273290e-02,-2.641155e-02,-5.057649e-02,-5.815438e-02,-5.278865e-02,-7.267865e-02,-2.519601e-02,4.633769e-03,8.474382e-02,1.483030e-01,1.925662e-01,1.812284e-01,1.178707e-01,8.650148e-02,1.050760e-01,5.647937e-02,-1.018011e-02,-5.445055e-02,-2.552272e-02,-7.624432e-03,-1.826525e-03,-2.383754e-05,0,-3.415569e-06,-1.753989e-03,-1.433524e-02,-2.516064e-02,-3.061795e-02,-2.786235e-02,-3.786412e-02,-5.804399e-02,-7.059105e-02,-6.026680e-02,-2.506220e-02,5.888653e-02,1.213278e-01,1.501369e-01,1.441371e-01,2.038181e-01,2.009173e-01,1.646304e-01,1.575398e-01,1.368286e-01,1.170648e-01,7.242470e-02,-2.104241e-02,-4.035851e-02,-2.311702e-02,-4.302907e-03,-4.497315e-05,0,-2.863949e-05,-1.864715e-03,-1.844354e-02,-2.049944e-02,-3.866427e-02,-4.679792e-02,-6.921974e-02,-7.665417e-02,-6.613196e-02,-5.103197e-02,-1.160015e-02,4.574119e-02,1.529448e-01,2.290358e-01,2.260969e-01,1.816370e-01,1.572713e-01,1.314249e-01,1.393918e-01,1.175242e-01,1.153993e-01,1.212608e-01,4.614289e-02,-6.487762e-02,-4.353751e-02,-9.499332e-03,-1.081783e-04,0,-2.756365e-04,-4.130647e-03,-1.151820e-02,-1.309953e-02,-4.434562e-02,-6.647804e-02,-9.657505e-02,-6.079920e-02,-5.372699e-02,-4.585842e-02,-1.616761e-02,-3.275895e-03,8.558110e-02,1.643753e-01,1.969400e-01,2.025361e-01,1.320471e-01,1.489948e-01,1.431299e-01,1.027465e-01,6.174755e-02,1.367940e-01,9.533010e-02,-5.483565e-02,-7.400467e-02,-1.924696e-02,-3.167416e-04,0,-5.901674e-04,-7.085462e-03,-2.340995e-02,-6.614354e-03,-3.415085e-02,-8.227606e-02,-2.862168e-02,6.161511e-03,8.557263e-03,-1.767392e-02,-6.745757e-02,-1.852116e-02,7.681338e-02,1.613725e-01,2.109490e-01,2.060018e-01,1.961130e-01,1.959251e-01,1.853956e-01,1.808683e-01,1.040434e-01,1.434473e-01,1.484125e-01,-4.989274e-02,-1.144560e-01,-3.728693e-02,-8.761057e-04,0,-8.476702e-04,-7.721223e-03,-2.304147e-02,-9.925938e-03,1.853025e-02,-6.302077e-03,2.567165e-02,5.254028e-02,6.205411e-02,-4.051655e-02,-4.885999e-02,5.706605e-04,9.385531e-02,1.272904e-01,2.216235e-01,2.116528e-01,2.320587e-01,2.569296e-01,2.725902e-01,2.940625e-01,2.164675e-01,1.697040e-01,2.109470e-01,-4.282982e-02,-1.498620e-01,-3.641775e-02,-1.240905e-03,0,3.382089e-03,-9.508550e-03,-1.039299e-02,-1.239489e-02,2.141709e-02,2.622966e-02,7.007712e-02,4.510363e-02,1.812342e-03,-1.364082e-03,-4.349170e-02,3.444089e-02,1.124428e-01,1.278388e-01,5.542596e-02,8.381037e-03,-4.277781e-03,3.151833e-02,1.889579e-01,3.059979e-01,2.577462e-01,2.007806e-01,2.486122e-01,-3.027806e-02,-1.561355e-01,-3.174093e-02,-1.772381e-03,-4.342257e-07,7.248719e-03,-1.217073e-02,-2.602540e-02,-4.281416e-02,2.089487e-02,5.575406e-02,7.140236e-02,7.700080e-02,3.375910e-02,1.748437e-02,-2.782075e-02,6.238462e-02,3.699634e-02,-4.952787e-02,-2.034998e-01,-2.990800e-01,-2.721249e-01,-2.352449e-01,3.099383e-02,2.144722e-01,1.851323e-01,1.888416e-01,2.585185e-01,3.267827e-02,-1.698830e-01,-2.582897e-02,-3.192891e-03,-2.515717e-06,2.840661e-03,-2.154141e-02,-2.312472e-02,-1.655005e-02,1.228851e-01,1.317464e-01,7.702037e-02,5.106021e-02,9.551154e-02,3.479670e-02,-5.523995e-02,-1.091735e-01,-2.931561e-01,-3.609068e-01,-5.031902e-01,-5.508682e-01,-5.014740e-01,-4.037036e-01,-1.432278e-01,7.513361e-02,8.728371e-02,2.366897e-01,2.421237e-01,3.527201e-02,-1.531350e-01,-3.729627e-02,-5.067206e-03,-1.741448e-06,-1.062883e-03,-3.394872e-02,-4.136683e-02,-3.088696e-02,1.474819e-01,1.205518e-01,6.226606e-02,1.044165e-01,4.351350e-02,-5.659185e-02,-2.739032e-01,-4.329189e-01,-5.195900e-01,-5.499325e-01,-6.067444e-01,-5.673264e-01,-5.107623e-01,-3.650858e-01,-1.551919e-01,6.769127e-04,3.258204e-02,1.429811e-01,1.949280e-01,-2.812959e-03,-1.475419e-01,-4.686621e-02,-7.266244e-03,-7.256033e-08,2.137757e-03,-3.988692e-02,-5.573877e-02,-5.920538e-03,1.452421e-01,1.014410e-01,8.322393e-02,1.598383e-01,3.669747e-02,-1.392782e-01,-4.014876e-01,-5.561724e-01,-5.974939e-01,-5.761883e-01,-5.647701e-01,-4.563636e-01,-3.238354e-01,-2.023186e-01,-9.345867e-02,1.503681e-02,9.530664e-03,9.479658e-02,1.102488e-01,-6.478699e-02,-1.414348e-01,-4.213494e-02,-7.318780e-03,0,7.481445e-03,-3.451947e-02,-6.340761e-02,-4.464514e-02,1.224288e-01,1.558630e-01,1.474612e-01,2.703591e-01,1.153438e-01,-1.081390e-01,-3.792120e-01,-4.794023e-01,-5.075229e-01,-5.024902e-01,-4.004363e-01,-2.670463e-01,-1.165994e-01,-6.976818e-02,-4.945849e-02,-2.341262e-02,-1.555137e-02,3.881747e-02,2.243838e-03,-1.122379e-01,-1.204670e-01,-3.572597e-02,-6.058821e-03,0,3.341756e-03,-2.702726e-02,-8.458585e-02,-5.171081e-02,1.614116e-01,2.115420e-01,2.094553e-01,2.111465e-01,1.921896e-01,7.962868e-02,-1.379889e-01,-2.325305e-01,-2.650495e-01,-2.118769e-01,-1.777512e-01,-5.472491e-02,3.105814e-02,-3.832701e-03,-1.841093e-03,-2.639824e-02,-7.773335e-02,-7.659964e-03,-5.260756e-02,-1.285779e-01,-1.104656e-01,-3.001946e-02,-2.906921e-03,0,-6.972665e-04,-2.078537e-02,-1.098149e-01,-7.470391e-02,1.161044e-01,2.074350e-01,2.044123e-01,1.612126e-01,1.917110e-01,1.681352e-01,-9.350867e-03,-5.619434e-02,-8.661601e-02,-7.807028e-02,-3.374913e-02,1.835125e-02,1.542418e-02,-5.172343e-03,-6.010347e-03,-8.160350e-02,-9.934301e-02,-8.689019e-02,-1.517130e-01,-1.406907e-01,-8.516423e-02,-2.107779e-02,-3.359761e-03,0,-2.829997e-04,-1.957488e-02,-1.063998e-01,-8.205756e-02,3.967080e-02,1.151085e-01,1.242189e-01,1.027309e-01,1.684505e-01,1.368672e-01,1.053626e-01,2.831100e-02,-6.658821e-02,-7.754914e-02,-7.486934e-03,3.448313e-02,3.672515e-02,9.906273e-03,-3.350431e-02,-7.803433e-02,-9.940717e-02,-1.001751e-01,-1.598770e-01,-1.178728e-01,-5.472600e-02,-8.898674e-03,-2.542771e-03,0,-1.897681e-04,-1.300734e-02,-7.378920e-02,-6.882184e-02,1.880139e-03,7.071719e-02,3.642401e-02,6.948301e-02,1.003564e-01,1.416354e-01,1.235721e-01,3.910675e-02,-7.712507e-02,-1.579560e-02,5.704355e-02,7.532275e-02,5.676468e-02,5.905166e-03,5.074130e-03,-2.718515e-02,-4.721739e-02,-1.015149e-01,-1.347681e-01,-8.935868e-02,-4.301402e-02,-9.979863e-03,-2.445045e-03,0,-8.057505e-05,-6.391482e-03,-5.141012e-02,-5.649472e-02,2.010580e-02,1.178500e-01,6.751276e-02,4.979447e-02,2.959543e-02,9.887845e-02,1.637570e-01,1.378120e-01,1.048792e-01,1.260827e-01,1.036788e-01,1.040740e-01,5.013136e-02,4.539412e-02,3.458701e-02,6.218721e-03,-4.368443e-02,-7.641350e-02,-7.572082e-02,-6.376792e-02,-3.333351e-02,-1.156212e-02,-2.320623e-03,0,-8.830923e-06,-2.811672e-03,-3.390457e-02,-5.256032e-02,-1.750978e-02,1.014076e-01,1.223295e-01,1.447595e-01,1.284974e-01,1.868185e-01,2.264334e-01,2.851259e-01,2.626754e-01,2.129914e-01,1.867708e-01,1.480045e-01,1.151221e-01,7.817473e-02,4.206622e-02,-9.750725e-03,-3.632063e-02,-3.311751e-02,-3.475727e-02,-2.977311e-02,-1.340368e-02,-5.473634e-03,-5.914263e-03,0,-2.090840e-07,-1.551700e-03,-2.000076e-02,-5.602829e-02,-8.214120e-02,-3.828472e-02,6.785316e-02,1.775861e-01,2.327250e-01,2.820272e-01,2.796986e-01,3.218444e-01,3.245155e-01,2.794006e-01,2.317157e-01,1.494024e-01,6.431802e-02,1.929861e-02,-1.007437e-02,-4.182367e-02,-2.664270e-02,-8.871789e-03,-1.178954e-02,-1.000473e-02,-3.672651e-03,-3.655817e-04,-1.360235e-03,0,0,-7.053345e-04,-1.107458e-02,-4.701328e-02,-9.057401e-02,-1.311366e-01,-9.123972e-02,-2.866117e-02,4.909183e-02,1.059772e-01,1.700606e-01,2.196348e-01,1.869835e-01,1.723294e-01,1.298242e-01,4.417123e-02,3.133275e-03,-2.112032e-02,-1.896862e-02,-2.492809e-02,-1.739366e-02,-8.347224e-03,-9.680968e-03,-2.381914e-03,-1.165618e-03,-1.859886e-06,0,0,0,-3.082110e-05,-3.836242e-03,-1.169774e-02,-3.645894e-02,-8.136931e-02,-1.025627e-01,-1.065054e-01,-1.029503e-01,-8.973292e-02,-4.015957e-02,1.700054e-03,2.047006e-02,1.106501e-02,-8.856840e-03,-2.592143e-02,-1.579771e-02,-1.308339e-02,-1.429384e-02,-1.130435e-02,-4.879080e-03,-2.495707e-03,-1.491809e-03,-1.364431e-04,-1.293856e-06,-2.527248e-06,0,0,0,0,-7.842868e-04,-1.191334e-03,-9.969120e-03,-3.482100e-02,-3.448883e-02,-3.039879e-02,-3.117655e-02,-3.309380e-02,-1.844790e-02,-9.738320e-03,-3.300644e-03,-2.231833e-03,-4.004247e-03,-9.849936e-03,-4.851808e-03,-3.260826e-03,-3.605166e-03,-9.169464e-04,3.301211e-03,3.572115e-04,-1.292487e-05,-1.249568e-06,-1.046080e-06,0,0,0,0,0,0,-2.302092e-05,-2.453764e-03,-7.802167e-03,-2.876112e-03,-1.528393e-03,-5.971698e-04,-3.517652e-04,-1.928087e-04,-8.101761e-05,-6.914386e-04,-5.108372e-05,-6.638293e-04,-8.532800e-04,3.460821e-03,-1.943411e-03,-7.575401e-04,-1.172663e-06,4.186707e-06,7.729306e-06,0,0,0,0,0 };
