float weight_data_1[28][28] = { 0,0,0,0,0,0,0,0,-1.463946e-07,-2.305755e-06,-2.838045e-06,-7.776144e-07,-2.689475e-08,1.086213e-05,-1.048948e-06,-3.479949e-07,-2.590918e-08,0,-2.411616e-06,1.330751e-05,0,1.711883e-05,1.658386e-05,0,0,0,0,0,0,0,0,0,-2.794685e-08,0,-1.371649e-06,-1.066941e-04,-1.674505e-04,-4.850823e-04,-5.330042e-04,-2.129673e-04,-1.064503e-04,-4.835923e-06,-1.412464e-06,-1.429979e-06,4.753686e-05,1.210071e-04,2.010947e-05,3.312538e-05,-2.936832e-05,-1.480680e-05,5.063815e-06,0,0,0,0,0,0,0,-3.912789e-10,1.190901e-04,4.066816e-04,3.287701e-05,-1.818852e-03,-1.398290e-03,-8.670125e-04,-1.039071e-03,-1.017475e-03,-3.226935e-04,-4.157436e-04,-5.912866e-05,7.424152e-05,5.773625e-04,5.815033e-04,-1.462620e-04,-7.241954e-04,-1.019853e-03,-3.903161e-03,-5.965629e-03,-5.789050e-03,-2.162997e-04,-1.214030e-05,-3.747344e-07,0,0,0,0,-1.236086e-09,2.831837e-05,2.511006e-05,1.310414e-03,1.487553e-03,-1.848982e-03,-1.454066e-03,-2.383601e-03,-7.237321e-03,-4.737120e-03,9.660314e-05,1.206025e-03,1.973832e-03,1.864945e-03,-1.633610e-03,-4.037876e-03,-5.317448e-03,-7.151973e-03,-1.304800e-02,-9.464341e-03,-6.475352e-03,-4.260115e-03,-2.547418e-03,-4.735579e-04,0,0,0,-2.868455e-08,-7.464235e-07,-1.174097e-05,8.816458e-04,2.469131e-03,2.155901e-03,-4.562945e-03,-1.092878e-02,-1.584670e-02,-1.166681e-02,-4.014063e-03,1.483703e-03,-7.824120e-04,5.677987e-04,-3.223960e-03,-7.260244e-03,-1.750708e-02,-3.407347e-02,-4.494101e-02,-3.454338e-02,8.911249e-03,4.026246e-02,2.666408e-02,-5.605452e-03,-8.036738e-03,-6.508421e-04,-8.540965e-07,0,-8.452532e-08,-8.695117e-07,-2.987672e-04,6.869676e-03,1.318621e-02,-1.391904e-02,-4.381637e-02,-4.524334e-02,-6.013239e-02,-5.348482e-02,-3.126210e-02,-2.598508e-02,-2.342418e-02,-2.588557e-02,-3.537654e-02,-5.401450e-02,-1.036404e-01,-1.384094e-01,-1.593677e-01,-9.161408e-02,9.178416e-02,2.034607e-01,1.479301e-01,2.933506e-02,-1.859622e-02,-1.502746e-03,-2.232510e-06,0,-1.196709e-08,-7.194687e-05,-1.267078e-03,-1.055205e-03,-9.343105e-03,-4.752620e-02,-9.675825e-02,-1.104525e-01,-9.870604e-02,-9.480506e-02,-8.316869e-02,-5.166274e-02,-4.397656e-02,-4.829101e-02,-7.808518e-02,-1.321519e-01,-2.000310e-01,-2.581870e-01,-1.894605e-01,-4.064409e-02,1.220859e-01,2.190066e-01,1.845728e-01,3.269374e-02,-3.245318e-02,-2.732341e-03,-2.536127e-06,0,-2.600395e-05,-1.100184e-03,-8.218057e-03,-2.220416e-02,-5.730619e-02,-1.036034e-01,-1.419876e-01,-1.499732e-01,-1.157074e-01,-1.070645e-01,-1.053385e-01,-7.324705e-02,-7.092312e-02,-7.724413e-02,-9.937677e-02,-1.596309e-01,-2.174428e-01,-2.371825e-01,-1.171982e-01,1.563443e-03,1.124381e-01,1.592491e-01,1.270746e-01,-1.843244e-02,-5.347307e-02,-3.924255e-03,-4.066158e-06,0,-1.277503e-03,-6.382107e-03,-2.063828e-02,-3.656939e-02,-1.121137e-01,-1.718064e-01,-2.382317e-01,-2.354486e-01,-1.763556e-01,-1.298958e-01,-1.259496e-01,-1.133307e-01,-7.928705e-02,-8.890809e-02,-1.252081e-01,-1.796238e-01,-1.870287e-01,-1.107105e-01,-4.774616e-02,5.990022e-02,1.271463e-01,1.079516e-01,3.657943e-02,-8.856072e-02,-5.875264e-02,-7.051695e-03,-1.411978e-05,0,-1.426137e-03,-1.036768e-02,-3.066991e-02,-4.386587e-02,-1.244928e-01,-2.067104e-01,-2.560615e-01,-2.829868e-01,-2.291716e-01,-1.785478e-01,-1.724521e-01,-1.522008e-01,-1.703545e-01,-2.081832e-01,-2.353950e-01,-1.871105e-01,-1.199834e-01,-1.992339e-02,1.166615e-02,6.255095e-02,9.123372e-02,7.325494e-02,-5.745033e-03,-1.383593e-01,-8.762770e-02,-9.213488e-03,-1.761074e-04,0,-9.023459e-04,-8.631416e-03,-3.964158e-02,-3.857395e-02,-7.985439e-02,-1.528431e-01,-2.225651e-01,-2.562204e-01,-1.914922e-01,-1.349916e-01,-1.674309e-01,-2.428643e-01,-3.528733e-01,-4.025335e-01,-3.376303e-01,-1.452321e-01,-2.373073e-02,-4.996814e-02,-2.947860e-02,6.951695e-02,7.865691e-02,-3.525165e-02,-9.388561e-02,-2.102567e-01,-1.492191e-01,-1.831252e-02,-1.705280e-03,0,-1.884452e-04,-8.034232e-03,-6.523057e-02,-4.311972e-02,-5.031884e-02,-9.854536e-02,-2.045215e-01,-2.007261e-01,-1.290536e-01,-9.327103e-02,-1.791095e-01,-3.154328e-01,-4.207634e-01,-4.221230e-01,-2.206057e-01,-1.031068e-01,-5.461128e-02,-2.185897e-02,8.741208e-03,5.254708e-02,-8.471169e-02,-2.126325e-01,-1.724780e-01,-2.420329e-01,-1.482704e-01,-1.900291e-02,-6.204176e-04,-1.213867e-06,-2.753647e-04,2.373524e-03,-4.361313e-02,2.946024e-02,1.088238e-02,-8.721696e-02,-1.422931e-01,-1.412475e-01,-1.064131e-01,-6.520920e-02,-1.108304e-01,-1.406995e-01,-1.839204e-01,-8.603776e-02,3.231109e-02,4.313341e-04,1.093885e-01,1.157131e-01,1.673830e-02,-6.990680e-03,-1.500887e-01,-3.134646e-01,-1.498124e-01,-2.282155e-01,-1.235809e-01,-2.711312e-02,-1.349997e-03,-2.683135e-06,-1.996106e-04,2.034379e-02,-2.284737e-02,1.209913e-01,9.885848e-02,-7.399568e-02,-1.470478e-01,-6.933723e-02,2.947460e-02,1.294930e-01,1.780750e-01,2.249819e-01,3.317470e-01,3.898813e-01,4.231409e-01,3.974189e-01,3.618806e-01,1.994901e-01,1.164322e-01,-3.087909e-02,-1.595261e-01,-2.553933e-01,-1.805971e-01,-2.508486e-01,-1.497727e-01,-4.011213e-02,-1.432651e-03,-2.802557e-08,5.559749e-03,2.743802e-02,-1.368677e-02,1.392971e-01,1.172823e-01,-8.545940e-02,-1.505468e-01,-4.375248e-02,1.921725e-01,4.337295e-01,6.102806e-01,7.497412e-01,7.050739e-01,6.253843e-01,5.875510e-01,4.919806e-01,3.212401e-01,1.698964e-01,1.328681e-02,-6.940803e-03,-4.341864e-02,-8.543342e-02,-1.389571e-01,-2.083548e-01,-1.507918e-01,-3.996350e-02,-8.913267e-04,-1.167732e-09,8.382197e-03,5.251479e-02,2.108032e-02,1.108026e-01,1.140178e-01,-1.442610e-01,-2.331585e-01,5.156401e-03,3.006593e-01,4.963508e-01,5.760133e-01,5.131373e-01,4.275927e-01,3.595484e-01,1.831349e-01,3.761781e-02,-1.964482e-02,-7.444173e-02,-3.825301e-02,-1.779937e-02,2.959908e-02,3.632913e-02,9.850664e-03,-1.443287e-01,-1.351542e-01,-2.640399e-02,-4.587168e-04,0,-1.312939e-03,3.056752e-02,1.704779e-02,7.574391e-02,-1.205902e-02,-1.992852e-01,-2.259136e-01,-9.777197e-02,1.057629e-01,1.802504e-01,1.625694e-01,9.363572e-02,5.713383e-02,-5.940521e-03,-1.156591e-01,-2.292377e-01,-2.691417e-01,-2.044621e-01,-4.975379e-03,8.935281e-02,7.602223e-02,9.965744e-02,8.914868e-02,-1.378861e-01,-1.032361e-01,-1.521156e-02,-2.099362e-04,0,-1.285983e-03,3.106031e-03,-1.979326e-02,2.944015e-02,-7.874611e-02,-2.121218e-01,-1.633336e-01,-1.449286e-02,5.250835e-03,3.431083e-03,-4.534058e-02,-1.017473e-02,-6.891611e-02,-2.632966e-01,-3.879351e-01,-4.222395e-01,-3.501252e-01,-1.769146e-01,-1.886348e-02,1.394476e-01,1.381404e-01,2.065365e-01,1.563281e-01,-5.188474e-02,-5.546189e-02,-6.532547e-03,-6.149737e-04,0,-3.582925e-04,-3.873250e-03,-5.192649e-02,4.350785e-03,-8.295532e-03,-8.380900e-02,-1.388327e-01,-5.636246e-02,-8.276550e-02,-1.391998e-01,-1.023385e-01,-1.108169e-01,-2.147628e-01,-3.174353e-01,-3.249426e-01,-3.271385e-01,-2.678432e-01,-1.287483e-01,-7.972373e-03,1.082550e-01,1.279886e-01,1.661599e-01,5.469646e-02,-1.073758e-02,-2.117618e-02,-4.930908e-03,-1.372905e-03,0,-5.555496e-05,-7.025825e-05,-5.242025e-02,6.495451e-02,6.738541e-02,-1.366896e-02,-8.221855e-03,-5.107433e-02,-1.524822e-01,-1.860524e-01,-1.676599e-01,-1.599791e-01,-1.800137e-01,-2.272941e-01,-2.446158e-01,-2.278461e-01,-1.828108e-01,-1.010293e-01,-2.188039e-03,5.593801e-02,5.246396e-02,6.790320e-02,1.130123e-02,-4.033069e-03,-1.541503e-02,-2.499346e-03,-2.847335e-04,0,-1.344277e-04,-5.241067e-03,-4.826391e-02,9.228586e-02,1.491752e-01,9.818165e-02,4.257571e-02,-7.370421e-02,-2.002550e-01,-2.407686e-01,-1.620935e-01,-1.128859e-01,-1.141454e-01,-1.423925e-01,-1.619505e-01,-1.591708e-01,-1.250285e-01,-5.893355e-02,-1.836320e-02,-1.117268e-03,2.178930e-02,1.784931e-02,-2.277577e-02,-1.045031e-02,-6.859421e-03,-1.302368e-03,-1.383637e-04,0,-1.163240e-04,-3.957839e-03,-3.524242e-02,9.522276e-02,1.980882e-01,1.078663e-01,1.049406e-02,-1.244756e-01,-2.282265e-01,-2.196067e-01,-1.306981e-01,-7.203662e-02,-7.626340e-02,-9.330790e-02,-1.067373e-01,-1.034279e-01,-8.875626e-02,-5.486159e-02,-2.527301e-02,-4.096919e-02,-1.918144e-02,-3.424117e-02,-3.963364e-02,-6.326355e-03,-2.545836e-03,-8.115541e-04,-6.949404e-06,0,-6.820736e-06,-1.987950e-03,-2.461147e-02,5.963086e-02,1.652273e-01,7.916030e-02,-1.677040e-02,-1.629055e-01,-2.504750e-01,-1.956014e-01,-9.433540e-02,-5.615048e-02,-6.168871e-02,-6.899726e-02,-7.689083e-02,-7.836082e-02,-6.458687e-02,-6.612348e-02,-4.340335e-02,-4.788129e-02,-6.755871e-02,-5.648260e-02,-3.610911e-02,-1.315083e-02,-1.825051e-03,-1.182659e-04,-1.001385e-05,0,-9.895035e-08,-1.352901e-03,-1.484520e-02,2.381575e-02,7.810019e-02,2.979081e-02,-6.483914e-02,-1.975590e-01,-2.279626e-01,-1.636406e-01,-7.024988e-02,-3.596005e-02,-5.068194e-02,-4.855572e-02,-5.061850e-02,-5.889883e-02,-5.994018e-02,-6.110048e-02,-3.497686e-02,-3.635907e-02,-4.634803e-02,-3.015353e-02,-2.587199e-02,-7.116987e-03,-4.476370e-04,-2.341170e-06,-2.233328e-06,0,0,-4.852045e-04,-9.734232e-03,-2.621302e-02,1.389240e-02,-2.113567e-02,-1.032025e-01,-1.622508e-01,-1.492952e-01,-1.105942e-01,-4.784272e-02,-2.513336e-02,-3.581244e-02,-2.559436e-02,-3.118755e-02,-3.555177e-02,-3.938842e-02,-2.991057e-02,-1.180653e-02,-2.257387e-02,-9.428815e-03,-7.367282e-03,-6.121797e-03,-1.511596e-03,-1.525065e-05,-8.438446e-09,0,0,0,-2.153890e-05,-2.364278e-03,-1.749701e-02,-2.848646e-02,-3.067810e-02,-5.415656e-02,-6.930228e-02,-5.788178e-02,-3.785166e-02,-1.851640e-02,-1.043550e-02,-1.672823e-02,-1.508932e-02,-1.594203e-02,-2.431593e-02,-3.133793e-02,-7.237418e-03,3.982656e-03,-1.689347e-03,-2.736277e-03,-1.250212e-03,-5.767535e-05,1.149067e-03,-4.730073e-06,-5.220373e-07,0,0,0,0,-3.084779e-03,-2.236753e-03,-5.946556e-03,-4.293812e-03,-3.921852e-03,-7.660726e-03,-6.976947e-03,-6.687206e-03,-4.104786e-03,-4.717078e-03,-6.807705e-03,-2.340630e-03,-4.578781e-03,-8.488909e-03,-6.579151e-03,-5.313972e-04,-3.044444e-04,1.096854e-03,-4.949210e-04,3.905614e-04,1.592527e-03,2.215949e-04,-5.615471e-06,0,0,0,0,0,0,-1.168884e-03,-1.546292e-03,-7.747496e-05,-1.952926e-03,-1.584948e-03,-4.943028e-04,1.043623e-04,8.194331e-04,7.419425e-04,-2.503636e-04,-1.435309e-05,-5.141794e-04,-2.507802e-04,-2.355878e-04,-1.627802e-05,8.033653e-06,3.654285e-05,-2.069400e-11,-3.820430e-11,0,0,0,0,0 };
