float weight_data_7[28][28] = { 0,0,0,0,0,0,0,0,-1.273666e-03,1.013711e-03,1.559940e-03,7.654654e-04,8.446474e-04,-1.021679e-06,-2.306844e-05,1.199759e-05,1.117199e-04,0,7.935509e-04,-1.633985e-07,0,-1.094491e-06,-1.060288e-06,0,0,0,0,0,0,0,0,0,-1.137922e-08,0,-3.211644e-06,6.311522e-04,5.970245e-03,1.227532e-02,1.628099e-02,2.418204e-02,2.619934e-02,1.313156e-02,6.125636e-03,-1.490377e-05,-1.502520e-04,-2.157798e-05,-1.654494e-06,2.890959e-03,-2.315885e-05,-4.122029e-05,-2.043205e-06,0,0,0,0,0,0,0,-1.879459e-11,-5.969290e-09,-2.926537e-08,-9.464140e-06,3.707005e-03,1.071680e-02,3.177915e-02,4.151779e-02,5.687473e-02,8.239728e-02,9.011595e-02,5.827374e-02,2.913394e-02,8.813046e-03,5.481345e-04,-1.079218e-03,7.704837e-04,-2.380986e-04,-4.703104e-03,-8.733981e-03,-7.000535e-03,-4.693021e-03,-3.187761e-04,-7.353822e-04,0,0,0,0,-2.597525e-05,-8.143627e-05,2.226943e-04,5.046294e-05,1.935605e-02,4.223670e-02,8.796773e-02,1.212705e-01,1.226201e-01,1.372084e-01,1.492480e-01,1.078684e-01,5.183356e-02,1.880267e-02,-5.287027e-03,-7.371491e-03,-2.459272e-03,-1.321634e-02,-2.596116e-02,-3.247228e-02,-2.744560e-02,-1.708641e-02,8.371053e-03,9.405411e-03,0,0,0,-4.511002e-08,-9.965847e-06,-2.831714e-04,-2.977036e-04,-1.175532e-03,1.391304e-02,3.374499e-02,1.124364e-01,1.779047e-01,1.896072e-01,2.128221e-01,2.085818e-01,1.342149e-01,5.103443e-02,-1.239837e-03,-1.209293e-02,-1.463629e-02,-3.374493e-02,-3.560027e-02,-6.466614e-02,-6.829499e-02,-4.460370e-02,1.519353e-02,6.335495e-02,5.192032e-02,-1.933761e-03,8.897464e-05,0,-4.477573e-07,-1.956822e-06,-3.063823e-04,-6.210999e-03,1.265137e-02,3.602679e-02,8.274162e-02,1.516722e-01,1.648816e-01,1.851165e-01,1.529513e-01,1.533575e-01,8.235282e-02,5.225314e-02,-3.229667e-02,-5.205849e-02,-5.883200e-02,-1.023528e-01,-1.197622e-01,-1.196989e-01,-1.094867e-01,-2.691788e-02,6.642657e-02,1.503595e-01,7.295803e-02,-9.717358e-03,2.759974e-04,0,-1.471494e-05,-1.809254e-04,-8.089954e-04,-6.635825e-03,7.507637e-03,6.132477e-02,1.519942e-01,1.951347e-01,1.370847e-01,9.892754e-02,8.998781e-02,7.198794e-02,4.388742e-02,-1.041723e-02,-3.351133e-02,-4.665998e-02,-1.109056e-01,-2.000344e-01,-2.150230e-01,-2.158472e-01,-1.602984e-01,-3.404893e-02,1.251117e-01,1.936849e-01,9.431309e-02,-7.528139e-03,4.578112e-04,0,-1.422882e-04,-1.038340e-03,-4.115073e-03,-1.542190e-02,-5.920867e-04,6.687614e-02,1.788712e-01,2.532879e-01,1.086147e-01,6.399966e-02,6.710824e-02,1.150508e-01,4.956198e-02,-4.209208e-02,-9.586576e-02,-6.533758e-02,-1.642769e-01,-2.306832e-01,-2.690276e-01,-2.556649e-01,-1.811262e-01,1.178576e-02,1.706688e-01,2.054362e-01,1.492205e-01,2.060619e-02,1.562701e-03,0,-9.781197e-04,-2.430425e-03,-9.531085e-03,-3.141736e-02,-1.215180e-02,1.086322e-01,2.040029e-01,2.095339e-01,7.810197e-02,-3.592462e-02,-2.992279e-03,1.131606e-01,-9.567106e-03,-1.195788e-01,-1.986298e-01,-1.618075e-01,-1.962662e-01,-2.682017e-01,-2.612232e-01,-2.375985e-01,-1.748632e-01,-4.378999e-02,2.653572e-02,1.799753e-01,2.333692e-01,6.508362e-02,4.614206e-03,0,-8.996131e-04,-3.091063e-03,-1.352030e-02,-5.263649e-02,-4.937831e-02,9.559313e-02,2.298664e-01,1.631984e-01,3.737986e-02,7.079811e-03,7.545178e-02,3.513349e-02,-5.883681e-02,-2.001833e-01,-2.622961e-01,-2.074938e-01,-2.259901e-01,-2.840743e-01,-2.640201e-01,-2.473050e-01,-1.976276e-01,-9.525333e-02,1.334712e-02,1.544379e-01,2.578757e-01,9.551290e-02,6.185873e-03,0,-5.568189e-04,-4.799430e-03,-2.231485e-02,-7.753912e-02,-1.054354e-01,1.116164e-01,2.578207e-01,1.400862e-01,2.476218e-02,3.087825e-02,9.679442e-02,-2.826671e-02,-1.671256e-01,-3.110958e-01,-3.382095e-01,-3.301837e-01,-3.258593e-01,-3.101872e-01,-2.628981e-01,-2.167665e-01,-1.682288e-01,-7.222918e-02,1.094854e-03,1.553429e-01,2.120416e-01,1.045649e-01,1.883848e-02,0,-1.491716e-03,-1.004370e-02,-3.565000e-02,-1.066314e-01,-1.656319e-01,9.606337e-02,2.346136e-01,2.284536e-01,1.357700e-01,1.809465e-02,8.187947e-02,-1.522851e-01,-4.136437e-01,-5.208657e-01,-4.555956e-01,-4.109472e-01,-2.699013e-01,-2.035016e-01,-1.703412e-01,-1.508946e-01,-1.065887e-01,-1.265767e-01,-7.576553e-02,1.033643e-01,2.585629e-01,1.262672e-01,1.350253e-02,-9.155647e-07,-3.544951e-03,-8.831652e-03,-3.158864e-02,-1.284066e-01,-1.965520e-01,1.966824e-02,2.222614e-01,2.693170e-01,1.917848e-01,1.440851e-02,6.797851e-03,-3.554603e-01,-6.423795e-01,-6.772852e-01,-5.321959e-01,-3.015294e-01,-1.286694e-01,-7.047497e-02,-4.306474e-02,-2.674232e-02,-5.888958e-02,-1.243540e-01,-1.088200e-01,1.018539e-01,2.536915e-01,1.141860e-01,1.602303e-02,-2.469376e-06,-1.152303e-03,-5.937895e-03,-3.145370e-02,-1.443299e-01,-2.455733e-01,-9.398796e-02,1.117425e-01,1.397975e-01,1.617972e-01,1.666257e-01,7.605693e-02,-4.024836e-01,-6.569422e-01,-5.660097e-01,-3.759790e-01,-1.634667e-01,4.572593e-02,1.013558e-01,6.297734e-02,2.367903e-02,-6.133993e-02,-1.443598e-01,-7.695302e-02,1.305329e-01,2.434118e-01,1.765436e-01,4.492458e-02,-5.170170e-07,-5.264189e-04,-8.657324e-03,-3.270478e-02,-1.533504e-01,-2.935354e-01,-1.380829e-01,1.207997e-02,1.522180e-01,2.417126e-01,2.823143e-01,2.202192e-01,-1.497509e-01,-2.848201e-01,-2.379039e-01,-1.620175e-01,-7.251701e-02,1.048984e-01,1.031263e-01,1.002742e-01,3.813528e-02,-8.708805e-02,-6.776133e-02,-3.297576e-03,1.183571e-01,2.562094e-01,2.029674e-01,4.983339e-02,-2.154237e-08,-8.378346e-04,-9.599122e-03,-3.551159e-02,-1.500004e-01,-3.030605e-01,-9.790806e-02,4.972420e-02,2.179087e-01,2.952586e-01,4.230600e-01,3.656928e-01,2.003160e-01,5.256931e-02,-1.099528e-02,3.560038e-02,9.853983e-02,6.429184e-02,-6.954066e-03,-6.804805e-02,-9.989155e-02,-1.088295e-01,-3.753654e-02,2.943000e-02,1.074816e-01,2.539464e-01,2.118958e-01,4.613646e-02,0,-1.026429e-03,-7.087348e-03,-3.181758e-02,-1.413278e-01,-2.751860e-01,-8.308423e-02,1.303943e-01,2.604968e-01,3.734129e-01,5.383142e-01,4.491016e-01,3.625598e-01,1.774266e-01,6.873234e-02,5.297540e-02,1.249779e-01,2.375449e-02,-7.634439e-02,-1.898088e-01,-2.059750e-01,-1.466234e-01,-1.001146e-01,-1.719340e-02,9.576941e-02,2.131718e-01,1.826767e-01,4.926232e-02,0,-5.043442e-04,-4.686968e-03,-2.508279e-02,-1.156062e-01,-2.576512e-01,-9.083834e-02,1.787371e-01,2.430220e-01,3.579670e-01,3.867552e-01,3.715704e-01,3.074732e-01,1.479522e-01,2.144765e-01,3.554498e-01,2.846399e-01,8.522224e-02,-5.767210e-02,-1.901759e-01,-2.537229e-01,-2.191909e-01,-1.374380e-01,-3.845438e-02,6.416620e-02,1.783082e-01,1.724811e-01,5.386895e-02,0,-3.002899e-04,-3.013595e-03,-2.113532e-02,-8.918858e-02,-2.304816e-01,-1.305138e-01,1.637018e-01,2.682320e-01,2.388890e-01,3.023810e-01,3.139932e-01,2.150632e-01,1.246738e-01,3.159794e-01,4.105748e-01,2.460043e-01,8.403341e-02,-8.254015e-02,-2.065614e-01,-3.149957e-01,-2.540920e-01,-2.038817e-01,-1.159347e-01,-2.838153e-02,1.137578e-01,1.260727e-01,5.659391e-02,0,-9.310598e-05,-2.753769e-03,-1.365518e-02,-6.596575e-02,-2.106669e-01,-1.268904e-01,9.029140e-02,1.785959e-01,2.319332e-01,2.768129e-01,1.968970e-01,6.965759e-02,8.137294e-02,3.386762e-01,3.411748e-01,2.394021e-01,2.211410e-02,-9.665862e-02,-1.712597e-01,-2.811958e-01,-2.976753e-01,-2.300439e-01,-1.744349e-01,-7.693165e-02,1.929791e-02,5.157402e-02,3.177517e-02,0,-5.263720e-05,-1.690606e-03,-1.133276e-02,-5.152108e-02,-1.799550e-01,-1.181443e-01,6.498533e-02,1.380897e-01,1.595678e-01,2.582592e-01,2.139280e-01,9.705365e-02,8.641709e-02,2.005581e-01,3.062340e-01,1.844301e-01,3.080143e-02,-9.731314e-02,-2.389765e-01,-3.221287e-01,-2.883346e-01,-2.417143e-01,-1.970495e-01,-1.013876e-01,-4.003109e-02,-5.057300e-03,7.518206e-03,0,-1.124142e-05,-7.162364e-04,-6.770265e-03,-3.093573e-02,-1.168593e-01,-7.674912e-02,1.326058e-02,3.427145e-02,1.501836e-01,2.517340e-01,1.620961e-01,3.663897e-02,2.358356e-02,1.437123e-01,2.567079e-01,1.549849e-01,-1.986990e-02,-1.592913e-01,-2.787224e-01,-2.882538e-01,-2.427159e-01,-2.042488e-01,-1.643602e-01,-1.029985e-01,-4.578826e-02,-5.386010e-03,9.291727e-04,0,-3.056330e-06,-3.935411e-04,-3.354419e-03,-2.137968e-02,-8.055799e-02,-8.910752e-02,1.250001e-02,5.221913e-02,7.161456e-02,9.745690e-02,7.133557e-02,-3.515827e-03,1.110378e-02,1.536267e-01,2.096710e-01,5.097487e-02,-4.146231e-02,-1.543299e-01,-2.213794e-01,-2.146267e-01,-1.758108e-01,-1.196580e-01,-9.231330e-02,-7.503501e-02,-2.363816e-02,7.045956e-03,6.368787e-03,0,-4.062119e-06,-1.773206e-04,-1.562735e-03,-9.825248e-03,-4.726219e-02,-8.198325e-02,-3.434132e-02,-7.914185e-03,-4.756745e-02,-7.243457e-02,-3.839960e-02,-2.490032e-02,1.671029e-02,1.061417e-01,8.133578e-02,-1.415818e-02,-4.647341e-02,-1.264890e-01,-1.310445e-01,-1.029953e-01,-8.595996e-02,-6.382812e-02,-6.293844e-02,-6.157346e-02,-1.867819e-02,-8.434865e-04,2.413168e-03,0,0,-9.542883e-05,-8.096170e-04,-4.028363e-03,-1.852000e-02,-4.535380e-02,-5.046234e-02,-7.365823e-02,-6.855970e-02,-7.116406e-02,-5.008528e-02,-2.311609e-02,1.987230e-02,2.605901e-02,1.183158e-02,-1.631363e-02,-1.162638e-02,-7.186299e-02,-4.113183e-02,-2.845101e-02,-2.289669e-02,-1.997164e-02,-2.450649e-02,-2.480936e-02,-1.511408e-03,-7.938863e-06,0,0,0,-4.872882e-06,-1.114224e-04,-9.403832e-04,-6.395973e-03,-2.256885e-02,-3.553471e-02,-4.362347e-02,-3.331050e-02,-2.602013e-02,-1.887940e-02,4.037934e-03,1.228092e-02,5.531244e-03,-1.405254e-02,-1.915580e-02,-2.528761e-03,-1.090137e-02,-7.816475e-03,-6.329626e-03,-7.295001e-03,-7.612784e-03,-8.296324e-03,-1.019142e-02,-2.038369e-04,2.140779e-05,0,0,0,0,-3.512251e-08,-1.582323e-04,-2.601769e-03,-7.483090e-03,-7.463322e-03,-1.058992e-02,-4.438350e-03,-3.134326e-03,-5.705220e-03,4.621755e-03,1.561619e-04,-1.420456e-03,-2.197289e-03,-1.827986e-03,5.035060e-03,3.939857e-03,-1.702724e-03,-1.134369e-03,-8.502551e-04,-1.202547e-04,-7.087378e-05,-6.530782e-06,-5.992691e-06,0,0,0,0,0,0,-5.484840e-06,-1.081556e-04,-3.329051e-04,-4.192553e-04,-1.243297e-03,7.228757e-03,1.448406e-03,-1.209838e-04,2.550316e-03,-6.821409e-04,-8.502432e-06,-1.916049e-04,-9.629097e-05,-2.388580e-04,-1.832292e-05,-2.254369e-07,-9.813393e-07,-4.327944e-09,-7.990050e-09,0,0,0,0,0 };
