float weight_data_3[28][28] = { 0,0,0,0,0,0,0,0,-3.898926e-07,-5.233704e-05,-8.928737e-05,-4.542001e-05,-1.763403e-05,-2.823550e-06,-5.752798e-04,-1.888276e-04,-2.637608e-06,0,-1.504063e-04,-2.191148e-06,0,-2.279762e-06,-2.208519e-06,0,0,0,0,0,0,0,0,0,8.658606e-06,0,6.399040e-05,2.598130e-03,1.491228e-05,-4.921799e-04,-1.412081e-03,-1.923614e-03,-1.343361e-03,-6.477010e-04,2.698802e-03,6.665564e-03,3.471684e-03,1.842129e-03,2.479643e-04,-9.447669e-05,2.739667e-04,5.521526e-04,7.195289e-06,0,0,0,0,0,0,0,-3.187667e-09,-2.503056e-06,7.539982e-05,1.253384e-03,3.684866e-03,2.020992e-03,-2.697646e-03,5.044400e-03,3.663007e-03,4.054521e-03,-4.487633e-03,-3.027816e-03,7.460204e-04,7.668919e-03,2.126776e-02,2.698886e-02,3.829543e-02,3.688444e-02,2.831692e-02,2.519819e-02,2.206549e-02,1.061258e-02,2.714935e-03,3.885089e-04,0,0,0,0,-2.161105e-07,-1.006567e-05,3.664499e-03,1.827936e-02,3.836209e-02,4.291692e-02,4.174403e-02,4.326909e-02,6.159660e-02,5.157243e-02,4.060196e-03,-4.537364e-03,5.948686e-03,1.792735e-02,6.116549e-02,1.168454e-01,1.824864e-01,2.120783e-01,1.874235e-01,1.231734e-01,9.114539e-02,6.484028e-02,2.689192e-02,-2.560424e-03,0,0,0,-3.881546e-09,-8.046933e-07,-6.577924e-04,1.502033e-02,5.032606e-02,9.710594e-02,1.569089e-01,1.717242e-01,1.468114e-01,6.170684e-02,1.775100e-02,-3.307954e-02,-5.489228e-02,-2.724635e-02,2.073792e-02,9.148730e-02,1.531797e-01,2.092927e-01,2.371935e-01,2.549151e-01,1.929180e-01,1.301757e-01,1.271780e-01,7.195323e-02,6.398763e-03,-1.381435e-04,-4.668279e-07,0,-2.527876e-08,-1.165724e-05,1.376452e-02,5.845949e-02,1.278636e-01,1.701786e-01,2.159502e-01,1.810425e-01,1.050972e-01,-1.852954e-02,-1.228414e-01,-1.587726e-01,-1.437372e-01,-1.239519e-01,-4.584806e-02,2.998974e-02,6.367549e-02,1.772369e-01,2.365334e-01,2.137986e-01,1.641636e-01,1.169013e-01,1.650576e-01,1.239751e-01,3.153592e-02,2.990260e-03,-1.396997e-06,0,-3.147465e-06,-1.910340e-04,1.295657e-02,8.216179e-02,1.786890e-01,2.090220e-01,1.744619e-01,1.346458e-01,7.947682e-02,-7.205893e-02,-2.280229e-01,-2.620664e-01,-2.277096e-01,-2.227305e-01,-1.316912e-01,-9.225370e-02,-4.462405e-02,6.977664e-02,1.259599e-01,2.232966e-01,1.813701e-01,1.207658e-01,2.033558e-01,2.250751e-01,7.616843e-02,5.720672e-03,-7.601366e-06,0,-2.048947e-05,-1.027224e-03,2.175326e-02,1.280160e-01,2.111542e-01,1.536545e-01,8.628887e-02,4.425915e-02,1.578536e-03,-1.545873e-01,-3.317429e-01,-3.119280e-01,-2.758621e-01,-2.558405e-01,-2.124223e-01,-1.661627e-01,-8.896773e-02,-6.029147e-02,4.521224e-02,1.716130e-01,1.494078e-01,5.517538e-02,1.426954e-01,2.556897e-01,1.248950e-01,1.010463e-02,-1.963267e-05,0,-2.584439e-04,-3.142096e-03,2.275480e-02,1.774628e-01,2.035465e-01,1.416449e-01,5.116815e-02,-1.283122e-02,-8.060982e-02,-2.760987e-01,-3.720301e-01,-2.880641e-01,-2.042211e-01,-2.063010e-01,-2.456542e-01,-2.544181e-01,-2.087091e-01,-1.324696e-01,6.055072e-03,1.500586e-01,1.049279e-01,-3.257107e-02,2.273156e-02,2.218383e-01,2.006386e-01,6.133170e-03,-4.135645e-05,0,-5.820419e-04,-5.604099e-03,1.176836e-02,1.993323e-01,1.813315e-01,1.491464e-01,6.190364e-02,1.735499e-02,-1.059275e-01,-3.568032e-01,-3.424872e-01,-1.229536e-01,-1.170878e-01,-1.588258e-01,-2.423968e-01,-2.320854e-01,-3.848035e-01,-2.777710e-01,-5.614959e-02,1.447182e-01,4.513283e-03,3.498380e-03,6.536021e-02,2.279328e-01,2.448733e-01,2.782688e-03,-4.255745e-04,0,-4.053556e-04,-3.201696e-03,2.769268e-02,2.288328e-01,1.528643e-01,1.307944e-01,4.205130e-02,3.927415e-02,-1.989081e-01,-3.916769e-01,-2.701085e-01,1.321384e-02,-1.325609e-01,-2.016843e-01,-1.820498e-01,-2.380733e-01,-4.276688e-01,-3.471710e-01,-1.503310e-01,-1.338500e-02,-2.552798e-02,3.824596e-02,7.001743e-02,2.782861e-01,2.803287e-01,2.529233e-03,-1.443716e-03,0,-1.214162e-04,3.744229e-03,9.419429e-02,2.717002e-01,1.288092e-01,1.097026e-01,6.918776e-02,2.260680e-02,-2.927319e-01,-4.268189e-01,-2.071280e-01,-4.517890e-02,-1.113174e-01,-1.497825e-01,-4.930262e-02,-8.933163e-02,-3.394612e-01,-3.507775e-01,-2.276226e-01,-1.250682e-01,-8.519226e-02,1.861686e-02,8.857563e-02,2.483558e-01,2.919958e-01,-7.207558e-04,-1.497926e-03,-1.475568e-05,-3.462944e-04,5.052412e-03,1.430681e-01,2.756199e-01,9.178235e-02,1.086675e-01,1.282331e-01,3.011179e-02,-2.382438e-01,-3.258839e-01,-8.397426e-02,4.550288e-02,7.364724e-02,6.921159e-02,7.838968e-02,2.483746e-02,-2.257619e-01,-3.585782e-01,-2.701871e-01,-2.080176e-01,-1.056417e-01,-6.525844e-02,-1.554957e-02,2.031942e-01,3.010585e-01,-1.465091e-02,-2.036790e-03,-3.366680e-05,-3.226142e-04,-1.039272e-03,1.365611e-01,2.939908e-01,6.474707e-02,1.795512e-01,1.374043e-01,7.873229e-02,-4.616002e-02,9.135737e-04,1.223021e-01,1.503017e-01,2.347261e-01,8.980358e-02,1.038353e-01,7.427039e-02,-2.076473e-01,-3.145477e-01,-1.954016e-01,-1.169574e-01,-6.519151e-02,-5.846846e-02,3.759452e-02,2.240644e-01,2.411082e-01,-1.797263e-02,-2.737008e-03,-1.510021e-06,-1.853994e-03,-1.576316e-03,1.788160e-01,2.485184e-01,6.336588e-02,1.665083e-01,1.596093e-01,1.746986e-01,2.056960e-01,2.348011e-01,2.010830e-01,2.995752e-01,1.957252e-01,7.288998e-02,7.181601e-02,-5.093472e-02,-2.473486e-01,-2.307034e-01,-9.146528e-02,-2.969345e-03,-2.260547e-02,-4.290274e-02,-2.473111e-02,1.634672e-01,1.362829e-01,-2.810487e-02,-4.242151e-03,-6.291752e-08,-2.499443e-03,-9.340036e-03,1.672934e-01,2.178468e-01,1.290850e-01,1.612833e-01,1.578057e-01,1.907324e-01,2.757759e-01,2.454313e-01,2.015358e-01,1.844101e-01,1.878511e-02,2.679818e-02,1.980173e-02,-1.578345e-01,-1.842987e-01,2.445256e-02,3.772100e-02,5.727687e-02,4.592431e-02,6.800105e-03,-1.833645e-02,8.395115e-02,5.040938e-02,-2.348720e-02,-3.102682e-03,0,-1.239344e-03,-7.957296e-03,1.405609e-01,1.933739e-01,1.442692e-01,1.460595e-01,5.484140e-02,1.326458e-01,2.080134e-01,1.963366e-01,1.073743e-01,1.167407e-01,9.249180e-02,2.074796e-02,-3.238828e-02,-1.486272e-01,-7.005776e-04,2.116220e-01,1.834817e-01,1.436178e-01,1.086076e-01,3.399694e-02,-5.813141e-02,8.279674e-02,3.403471e-02,-8.157033e-03,-3.385441e-03,0,-6.521655e-04,-6.103301e-03,1.119122e-01,1.084854e-01,3.114125e-02,7.021617e-02,7.066254e-02,1.301440e-01,1.608470e-01,1.702225e-01,1.770368e-01,1.281750e-01,1.223581e-01,8.024465e-02,7.822341e-03,-8.037872e-03,1.347442e-01,2.109262e-01,2.624845e-01,1.792089e-01,7.044910e-02,4.170517e-02,3.478935e-02,3.643305e-02,2.855442e-03,-1.052758e-02,-3.299992e-03,0,-4.118556e-04,-9.317680e-03,9.236285e-02,1.095671e-01,1.774020e-02,1.207475e-01,5.073840e-02,1.444157e-01,1.363658e-01,1.578970e-01,1.593559e-01,1.038663e-01,1.111436e-01,7.767820e-02,3.737384e-02,1.412961e-01,1.082186e-01,1.949270e-01,2.386547e-01,1.851602e-01,1.475919e-01,8.745553e-02,9.767421e-02,-7.624079e-02,-1.719080e-02,-8.286307e-03,-2.676077e-03,0,-3.523013e-05,-7.244885e-03,5.505277e-02,2.444168e-02,-4.798704e-03,-2.034311e-02,7.136679e-02,1.460965e-01,1.441108e-01,1.788241e-01,1.678428e-01,-2.995765e-03,-6.559809e-02,-3.172208e-02,1.171931e-01,1.921507e-01,1.754963e-01,1.567683e-01,1.492468e-01,1.419346e-01,1.909910e-01,1.181331e-01,-4.954358e-03,-7.791761e-02,3.977703e-03,-7.762521e-03,-1.805485e-03,0,-4.953612e-05,-3.668110e-03,3.686517e-02,-4.287525e-02,-6.956907e-02,-7.731078e-03,5.876845e-02,1.564994e-01,2.360460e-01,2.486057e-01,1.386156e-01,-1.143124e-01,-2.128440e-01,-1.018756e-01,1.411031e-01,1.713544e-01,1.079506e-01,1.175944e-01,1.370001e-01,2.027474e-01,1.144487e-01,3.912666e-02,-4.340228e-02,-4.674532e-02,-1.564129e-02,-9.049783e-03,-8.563407e-04,0,-2.987736e-05,-3.481139e-03,-2.101450e-02,-8.717345e-02,-1.365732e-01,-6.067590e-02,-1.198006e-02,1.127700e-01,1.682153e-01,9.196974e-02,-7.073912e-02,-2.330072e-01,-2.055381e-01,-4.009222e-02,1.109623e-01,1.614204e-01,1.985189e-01,2.630636e-01,2.479721e-01,1.434788e-01,4.572453e-03,-5.254865e-02,-5.161704e-02,-2.505785e-02,-2.373005e-02,-5.242124e-03,-2.375438e-04,0,-1.693227e-06,-2.753590e-03,-2.779788e-02,-7.898365e-02,-1.562838e-01,-1.555359e-01,-1.129859e-01,2.141269e-02,5.465652e-02,-2.193520e-02,-1.022422e-01,-1.724370e-01,-1.899270e-01,-1.132890e-01,8.154687e-02,1.814095e-01,2.444686e-01,2.625978e-01,1.508116e-01,1.768279e-02,-6.400189e-02,-4.863054e-02,-4.918479e-02,-1.769277e-02,-9.693375e-03,-2.366479e-04,-1.175185e-04,0,-4.423543e-08,-1.247932e-03,-1.606972e-02,-8.336009e-02,-1.488084e-01,-1.671094e-01,-1.850962e-01,-2.059800e-01,-1.355171e-01,-9.481751e-02,-9.327900e-02,-1.019098e-01,-1.041467e-01,-8.343998e-02,2.793081e-02,1.064792e-01,1.315528e-01,6.867115e-02,1.601289e-02,-3.672500e-02,-8.178326e-02,-5.170674e-02,-2.785574e-02,-8.931897e-03,-1.766156e-03,-4.700846e-05,-1.667397e-05,0,0,-3.940931e-04,-5.321248e-03,-2.163235e-02,-5.515309e-02,-7.919294e-02,-1.129989e-01,-1.469410e-01,-1.207588e-01,-8.061586e-02,-5.733576e-02,-3.989505e-02,-4.497552e-02,-3.921377e-02,-1.399482e-02,2.008099e-02,-3.940626e-02,-8.471140e-02,-7.253364e-02,-6.077148e-02,-5.298262e-02,-3.268539e-02,-1.257189e-02,-7.061191e-03,-1.401435e-04,-9.322432e-07,0,0,0,-1.953880e-05,-3.483407e-04,-2.210738e-03,-1.055600e-02,-2.235931e-02,-2.991609e-02,-3.980344e-02,-2.617959e-02,-1.552762e-02,-4.411903e-03,2.866969e-04,-3.907124e-03,-1.017210e-02,-1.684905e-02,-2.638753e-02,-4.706107e-02,-3.805422e-02,-2.573888e-02,-1.577876e-02,-1.328904e-02,-9.984523e-03,-5.488202e-03,-1.798535e-03,-1.160838e-04,-4.669190e-07,0,0,0,0,-6.672994e-06,-8.676109e-05,-1.301470e-03,-3.761271e-03,-3.352585e-03,-3.439971e-03,-3.920261e-03,-2.338055e-03,-8.437776e-04,-3.494646e-04,-6.456425e-04,-3.333111e-03,-4.434193e-03,-5.133837e-03,-5.260408e-03,-4.533801e-03,-4.153064e-03,-1.386010e-03,-2.133702e-03,-1.439961e-04,9.593394e-04,-1.181213e-05,-3.766568e-06,0,0,0,0,0,0,-1.665791e-05,-8.036326e-05,-1.081485e-04,-1.540619e-04,-4.084463e-05,-1.087377e-04,-4.344760e-05,-1.909888e-05,-2.265903e-05,-7.327996e-04,-5.374197e-04,-2.565009e-04,-3.255324e-04,-2.327733e-04,-1.305385e-04,-6.477211e-05,-5.209517e-06,-1.241162e-07,-2.291377e-07,0,0,0,0,0 };