float weight_data_8[28][28] = { 0,0,0,0,0,0,0,0,-3.189620e-06,-2.346873e-05,-3.270552e-05,-2.753204e-05,-1.295085e-05,-2.784428e-06,-3.281586e-04,-1.097281e-04,-1.301688e-05,0,-4.516215e-05,-4.073466e-06,0,-4.761917e-06,-4.613107e-06,0,0,0,0,0,0,0,0,0,-2.464425e-07,0,-6.804259e-06,-9.198932e-04,-1.478664e-03,-1.885244e-03,-1.864119e-03,-1.934908e-03,-8.011432e-04,-1.061906e-04,-2.693342e-04,-5.509642e-04,-2.873859e-04,-2.297662e-04,-3.529480e-05,-5.757023e-04,-8.400495e-04,-5.662974e-05,-2.081101e-06,0,0,0,0,0,0,0,-2.516542e-07,-1.362944e-05,8.592883e-05,-1.167424e-04,-1.068579e-03,-2.613156e-03,-5.716267e-03,-1.128083e-02,-9.746634e-03,-6.138174e-03,-3.973405e-03,-9.401780e-04,-4.660377e-04,-1.062037e-03,-2.338885e-03,-2.926052e-03,-3.628318e-03,-4.366015e-03,-5.688235e-03,-5.652976e-03,-4.502757e-03,-1.285834e-03,-8.756257e-05,-7.630131e-05,0,0,0,0,-9.360366e-06,-5.320671e-05,-2.304913e-04,-5.006658e-03,-1.466066e-02,-1.389947e-02,-9.248681e-03,-1.108430e-02,-2.442921e-02,-2.010508e-02,-2.453521e-03,-6.513206e-04,-7.930531e-03,-1.001693e-02,-1.023434e-02,-2.107420e-02,-4.408671e-02,-5.900439e-02,-5.798085e-02,-4.097682e-02,-2.463940e-02,-1.365920e-02,-1.228155e-02,-3.165381e-03,0,0,0,-4.520163e-07,-1.578770e-05,-1.613446e-04,-1.837163e-03,-1.355317e-02,-2.783026e-02,-1.698294e-02,-4.221045e-04,1.330686e-02,3.874001e-02,1.771887e-02,-5.265386e-03,-2.874905e-02,-5.030141e-02,-5.274149e-02,-6.836680e-02,-8.382105e-02,-1.214319e-01,-1.098545e-01,-8.729488e-02,-7.364454e-02,-7.661875e-02,-8.366254e-02,-6.936584e-02,-3.753219e-02,-5.900145e-03,-2.372994e-05,0,-1.367174e-06,-6.077531e-06,-9.168797e-04,-8.915810e-03,-2.929274e-02,-4.516992e-02,-4.135574e-02,1.944846e-02,7.422166e-02,8.587500e-02,1.028641e-01,6.444626e-02,-2.337635e-02,-7.608858e-02,-1.340426e-01,-1.671653e-01,-1.762333e-01,-1.310423e-01,-4.132534e-02,-4.423298e-02,-4.509101e-02,-1.207271e-01,-2.142175e-01,-1.667240e-01,-7.167259e-02,-1.316702e-02,-6.344663e-05,0,-2.412249e-06,-1.312355e-04,-2.182872e-03,-2.160956e-02,-5.211306e-02,-7.794692e-02,-2.714255e-02,8.930164e-02,1.397278e-01,1.540290e-01,1.704383e-01,7.599130e-02,-4.546466e-02,-1.646281e-01,-2.106293e-01,-1.831962e-01,-1.531995e-01,-6.930360e-02,4.088565e-02,7.454374e-02,6.499800e-02,-4.421966e-02,-2.496865e-01,-2.262414e-01,-8.367231e-02,-2.147917e-02,-8.587735e-05,0,-3.311509e-05,-1.060123e-03,-8.118041e-03,-4.086445e-02,-6.642231e-02,-6.229918e-02,3.244267e-02,1.339553e-01,1.357528e-01,1.774128e-01,2.475867e-01,1.437605e-01,-6.508304e-02,-2.661167e-01,-2.298999e-01,-8.997201e-02,1.300798e-02,3.598313e-02,7.954111e-02,1.822661e-01,1.366039e-01,6.106329e-02,-1.406762e-01,-2.094306e-01,-1.171343e-01,-2.139562e-02,-1.653884e-04,0,-6.069818e-04,-2.937969e-03,-1.569121e-02,-4.515744e-02,-7.695795e-02,-1.370895e-02,7.712033e-02,6.660199e-02,1.235015e-01,1.742868e-01,2.352663e-01,1.033555e-01,-9.060438e-02,-2.839542e-01,-1.973633e-01,5.372255e-02,1.768974e-01,1.423606e-01,1.064759e-01,9.807570e-02,6.344771e-02,5.452847e-02,4.623767e-02,-7.092597e-02,-1.599583e-01,-2.627651e-02,-2.600231e-04,0,-1.009826e-03,-6.436637e-03,-2.672498e-02,-5.170718e-02,-5.991193e-02,-1.577097e-02,2.679283e-02,9.544325e-02,1.535132e-01,1.992986e-01,2.559997e-01,1.031521e-01,-3.177721e-02,-2.226323e-01,-1.086547e-01,6.801190e-02,2.557913e-01,2.124837e-01,1.589253e-01,1.408597e-03,4.902659e-02,-5.961722e-03,3.373289e-02,-2.798271e-02,-1.604196e-01,-3.825191e-02,-5.449429e-04,0,-7.532265e-04,-9.656767e-03,-3.819078e-02,-4.856163e-02,-6.280962e-02,-2.825877e-02,3.709110e-02,7.006738e-02,1.490044e-01,2.162745e-01,1.852643e-01,-4.687401e-02,-1.552280e-01,-9.378236e-02,-6.205006e-02,2.113302e-02,9.344365e-02,1.847549e-01,1.266321e-01,1.500575e-02,-2.450710e-02,-2.148482e-02,-3.004360e-03,1.500381e-02,-9.535710e-02,-5.491911e-02,-4.258808e-03,0,-4.602076e-04,-1.249965e-02,-5.562242e-02,-1.445089e-02,4.580104e-02,5.603780e-02,-2.384763e-02,2.237743e-02,1.180899e-01,1.723639e-01,1.248423e-01,-4.050528e-02,6.944542e-03,1.244457e-01,-2.356085e-03,4.941722e-02,2.221642e-01,2.715854e-01,-3.636589e-03,-1.013175e-01,-2.657400e-02,7.830372e-02,6.590427e-02,9.115470e-02,-9.681768e-02,-5.590624e-02,-3.170685e-03,-4.773755e-05,-7.242472e-04,-1.439601e-02,-7.255470e-02,5.569317e-02,1.399378e-01,1.009313e-01,-5.270844e-02,1.166278e-01,8.597998e-02,1.165146e-01,1.503633e-01,1.357525e-01,2.119647e-01,2.409918e-01,1.940071e-01,2.869805e-01,3.197124e-01,1.728610e-01,1.709016e-02,1.223656e-02,1.449745e-02,1.310701e-01,1.516632e-01,9.791389e-02,-1.331302e-01,-6.680122e-02,-3.121771e-03,-1.060363e-04,-8.687049e-04,-1.870198e-02,-9.216943e-02,5.323101e-02,1.345098e-01,-5.945243e-03,-5.063318e-02,1.020330e-01,2.559531e-03,4.137096e-02,2.096960e-01,3.245229e-01,2.814033e-01,2.864498e-01,3.053551e-01,1.610898e-01,1.134642e-01,-1.045504e-02,-9.070845e-02,9.472955e-03,6.661540e-02,1.666374e-01,2.527014e-01,6.922711e-02,-1.228803e-01,-6.679697e-02,-2.555317e-03,-1.677600e-06,-1.373043e-03,-2.350644e-02,-1.145470e-01,1.146618e-01,1.399470e-01,2.137856e-02,-9.586204e-02,-6.422320e-02,-1.747729e-01,-9.827320e-02,2.143724e-01,1.736752e-01,4.415147e-02,1.283816e-01,1.832011e-01,-1.841507e-02,-5.614599e-02,-1.471037e-01,-1.237179e-01,-7.708178e-02,-2.143811e-03,1.344800e-01,2.105012e-01,8.925793e-02,-3.904109e-02,-6.369066e-02,-4.435644e-03,-6.990000e-08,-1.491817e-03,-2.645994e-02,-1.095994e-01,9.527601e-02,1.177726e-01,1.580041e-01,7.017143e-02,-7.571609e-02,-2.964744e-01,-2.642476e-01,-4.171280e-02,2.967243e-02,1.572636e-01,1.097666e-01,5.806702e-02,-3.956532e-03,-9.103534e-02,-8.925810e-02,-6.708000e-02,-3.333992e-03,-1.543657e-02,6.555602e-02,2.124173e-01,1.283636e-01,3.508848e-02,-6.040438e-02,-3.751596e-03,0,-2.160148e-03,-2.729258e-02,-1.102974e-01,1.939979e-02,1.309074e-01,1.266011e-01,2.363613e-02,-1.401933e-02,-1.833733e-01,-2.726550e-01,-1.662713e-01,3.134204e-03,8.162874e-02,-8.510669e-03,-3.774271e-02,-6.830690e-03,1.975830e-02,-1.347430e-01,-9.149379e-02,-1.442735e-01,-7.877057e-02,3.495424e-03,1.994421e-01,1.628979e-01,2.731943e-02,-5.247108e-02,-2.475380e-03,0,-2.017146e-03,-2.210883e-02,-1.041630e-01,-4.700018e-02,1.297507e-01,7.695259e-02,-6.597448e-02,-2.830960e-02,-7.316580e-02,-1.623923e-01,-1.259499e-01,-1.720434e-02,-3.817922e-02,-1.342371e-02,-1.249159e-01,-9.305291e-02,-1.236846e-01,-1.205410e-01,-3.520889e-02,-7.260235e-02,-3.289531e-02,1.436332e-02,9.535322e-02,4.303695e-02,2.404610e-02,-3.922747e-02,-3.440040e-03,0,-1.219256e-03,-1.275219e-02,-6.493299e-02,-5.603336e-02,1.708863e-02,-3.585146e-02,2.989016e-02,3.737920e-02,2.059893e-02,5.543755e-02,-2.513735e-02,-9.031738e-03,2.456726e-02,-6.451207e-02,-1.630287e-01,-2.326543e-01,-2.075506e-01,-5.473115e-02,3.485387e-02,-4.710361e-03,-6.442638e-03,1.319661e-02,9.110735e-02,1.082693e-01,1.199687e-02,-3.065249e-02,-4.203616e-03,0,-3.180532e-04,-1.585769e-02,-6.769443e-02,-5.788440e-02,3.324758e-02,7.182721e-02,-2.190131e-02,8.595583e-02,9.539697e-02,1.022499e-01,2.595361e-02,1.144821e-01,2.963199e-02,-8.821323e-02,-1.984875e-01,-2.779511e-01,-1.383974e-01,-2.981467e-02,5.161462e-02,2.324690e-02,8.857612e-03,-4.439343e-02,6.360256e-02,1.376113e-01,1.512080e-03,-2.072345e-02,-2.543384e-03,0,-4.268876e-04,-6.723652e-03,-4.139476e-02,-4.276795e-02,3.442021e-02,5.421272e-02,4.155827e-02,3.278228e-02,7.909850e-02,1.766410e-02,7.821744e-02,2.157494e-01,8.456074e-02,-1.750066e-01,-2.707708e-01,-2.626475e-01,-1.114838e-01,-1.410336e-02,5.399831e-02,7.342475e-02,6.039410e-02,-8.029612e-03,6.651455e-02,5.036916e-02,-1.149391e-02,-1.107880e-02,-1.905096e-03,0,-4.090847e-04,-4.667492e-03,-1.618287e-02,-8.534316e-02,-3.888175e-02,1.198243e-02,8.632023e-02,9.071948e-02,1.038654e-01,9.539271e-02,1.870970e-01,2.571335e-01,7.228883e-03,-1.866294e-01,-2.694740e-01,-2.465532e-01,-1.176786e-01,-7.662116e-02,1.679985e-02,9.437848e-02,5.395022e-02,5.086520e-02,2.221904e-02,-1.495235e-02,-2.115700e-02,-6.116809e-03,-7.166250e-04,0,-6.574761e-05,-3.634535e-03,-2.725144e-03,-9.777261e-02,-9.853856e-02,-9.886046e-03,8.377606e-02,1.741132e-01,1.844229e-01,1.659983e-01,2.527636e-01,2.249780e-01,3.585099e-02,-1.879060e-01,-2.226235e-01,-2.144495e-01,-1.362812e-01,-3.843652e-02,7.820739e-02,1.022083e-01,6.897268e-02,-8.193468e-03,-8.656760e-03,-2.383914e-02,-1.343373e-02,-1.517176e-03,-7.320842e-04,0,-1.871853e-05,-2.324360e-03,3.998635e-03,-8.018614e-02,-1.006461e-01,2.916482e-02,1.780412e-01,2.073598e-01,1.726244e-01,1.506732e-01,2.128321e-01,1.978086e-01,4.221079e-02,-1.393474e-01,-1.779171e-01,-1.311949e-01,-8.216202e-02,-4.769570e-02,1.426442e-02,1.311746e-02,-3.356412e-02,-3.808762e-02,-3.153223e-03,-1.651931e-02,-3.815589e-03,-1.461710e-04,-1.437831e-04,0,0,-1.228673e-03,-3.686599e-03,-2.009564e-02,-4.132975e-02,2.561386e-03,1.086119e-01,1.360351e-01,5.908076e-02,2.063365e-02,1.271997e-01,1.352130e-01,2.300566e-02,-7.127947e-02,-1.029107e-01,-9.944431e-02,-6.302298e-02,-6.153642e-02,-4.921914e-02,-5.913045e-02,-6.044118e-02,-3.260922e-02,-1.414597e-02,-1.194233e-02,-1.390650e-03,-5.678490e-06,0,0,0,-2.409143e-04,-1.085618e-03,4.917547e-03,1.501852e-02,1.117440e-02,-1.008807e-02,6.278256e-04,-2.078511e-02,-4.916139e-02,2.160433e-02,4.067911e-02,6.817420e-03,-3.872965e-03,-1.769272e-02,-4.717869e-02,-6.503376e-02,-5.665906e-02,-4.641496e-02,-3.070251e-02,-1.509763e-02,-6.586607e-03,-4.605380e-03,-3.823983e-03,-5.458161e-04,-3.429901e-06,0,0,0,0,-1.017722e-03,3.280888e-03,-4.586696e-03,-1.032898e-02,-9.535258e-03,8.768385e-03,1.911972e-02,-2.690348e-03,1.935787e-02,7.490353e-03,-3.713039e-03,-5.323324e-03,-9.928671e-03,-1.594081e-02,-1.429486e-02,-7.088469e-03,-8.557316e-03,-6.329529e-03,-2.552586e-03,-4.481860e-04,-1.580074e-03,-4.787647e-04,-3.414480e-04,0,0,0,0,0,0,-1.540425e-05,-1.030354e-03,-1.518919e-03,-3.365443e-04,2.695659e-03,-7.566033e-03,3.000127e-03,2.190309e-03,-1.780686e-03,-2.147493e-03,-2.319157e-04,-1.891421e-03,-1.264066e-03,-3.437289e-04,-2.852732e-04,-6.212369e-05,-7.094323e-05,-1.990596e-06,-3.674947e-06,0,0,0,0,0 };
