float weight_data_6[28][28] = { 0,0,0,0,0,0,0,0,-3.411618e-06,-4.229603e-06,-5.718090e-06,-1.062322e-06,-2.949142e-08,-4.898634e-07,-6.520799e-05,-2.137472e-05,-1.338934e-07,0,-7.805832e-06,-4.108554e-07,0,-1.307034e-07,-1.266189e-07,0,0,0,0,0,0,0,0,0,-1.747333e-08,0,-4.481310e-07,-3.305628e-05,-4.313451e-04,-9.190494e-04,-1.313141e-03,-1.432762e-03,-5.413280e-04,-3.519405e-04,-3.955440e-06,-2.531221e-06,-3.738191e-06,-5.418688e-05,-1.350260e-05,-3.051746e-04,-4.457797e-04,-6.665653e-05,-4.409906e-08,0,0,0,0,0,0,0,1.858356e-06,-8.924161e-05,-3.197663e-04,7.859464e-05,-2.191039e-04,-7.976259e-04,-1.485009e-03,-3.034374e-03,-6.806962e-03,-2.093409e-03,-1.684831e-03,-3.833368e-04,-6.607507e-05,-1.305618e-04,-6.813999e-04,-1.792139e-03,-1.878728e-03,-2.399850e-03,-2.226085e-03,-8.939243e-04,-3.395950e-04,-1.405135e-04,-5.895192e-06,-3.352174e-07,0,0,0,0,-3.900292e-06,3.358395e-04,-6.296882e-04,-7.244851e-03,-1.120877e-02,-1.372646e-02,-1.509380e-02,-2.387707e-02,-2.444591e-02,-2.232675e-02,-1.661435e-02,-1.255681e-02,-8.644480e-03,-2.289226e-02,-3.663981e-02,-4.402207e-02,-4.352185e-02,-4.429975e-02,-3.306053e-02,-1.593292e-02,-5.312573e-03,-1.931053e-03,-8.136113e-05,-1.943495e-05,0,0,0,1.404641e-05,3.514508e-04,2.559120e-03,3.610170e-03,-4.049467e-04,-6.741959e-03,-9.542804e-03,-1.497986e-02,-2.818724e-02,-3.921654e-02,-2.675248e-02,-3.193850e-02,-3.986626e-02,-6.697366e-02,-1.050299e-01,-1.262982e-01,-1.580042e-01,-1.508854e-01,-1.257554e-01,-1.086916e-01,-7.598315e-02,-3.345935e-02,-8.027044e-03,-8.877955e-04,-7.376856e-04,-3.190421e-04,-2.782411e-08,0,1.022034e-04,3.504592e-04,3.176164e-03,-6.372381e-03,-3.672180e-02,-3.799797e-02,-3.458976e-02,-5.931453e-02,-8.006328e-02,-6.728250e-02,-2.357553e-02,-8.628258e-03,1.651404e-02,1.223735e-02,-1.707426e-02,-4.180183e-02,-1.055409e-01,-1.838284e-01,-1.873190e-01,-1.806243e-01,-1.469634e-01,-8.242565e-02,-2.553394e-02,-6.273567e-03,-2.293902e-03,-4.568646e-04,-1.561839e-07,0,5.985332e-03,9.218416e-03,1.621723e-02,-9.515814e-03,-3.361436e-02,-5.897332e-02,-7.149272e-02,-9.442084e-02,-9.954669e-02,-7.352437e-02,-1.991638e-02,7.926837e-02,1.469628e-01,1.273546e-01,1.070781e-01,9.439150e-02,2.911877e-02,-4.036294e-02,-1.013586e-01,-1.695550e-01,-2.152802e-01,-1.667106e-01,-5.854440e-02,-1.620285e-02,-5.171179e-03,-6.014346e-04,-2.751897e-06,0,1.288248e-02,3.090632e-02,3.410675e-02,8.470975e-03,-1.554732e-02,-1.120924e-03,-1.610742e-02,-7.237885e-02,-5.506833e-02,3.322181e-03,8.417103e-02,1.309408e-01,1.151570e-01,1.129943e-01,1.531408e-01,1.914866e-01,1.535970e-01,1.203104e-01,3.915642e-02,-3.745040e-02,-1.299195e-01,-2.089583e-01,-1.199856e-01,-3.674734e-02,-8.694277e-03,-8.742523e-04,-1.609561e-05,0,1.727317e-02,4.628702e-02,5.019607e-02,3.884850e-02,2.243326e-02,-1.172325e-02,-5.193384e-02,-8.895219e-02,-3.111292e-02,4.031968e-02,5.761369e-02,1.089866e-01,1.113945e-01,1.213405e-01,1.510231e-01,1.967438e-01,2.089832e-01,1.684319e-01,9.699912e-02,1.187140e-02,-2.494584e-02,-1.936973e-01,-1.799659e-01,-7.092888e-02,-1.825092e-02,-2.906072e-03,-2.477302e-05,0,1.334115e-02,5.901458e-02,7.458994e-02,3.044603e-02,4.938003e-03,-6.534961e-02,-1.048915e-01,-1.118455e-01,-9.048583e-02,-3.144756e-02,7.622278e-02,1.280736e-01,1.261130e-01,1.777491e-01,1.884569e-01,2.603378e-01,2.554282e-01,2.352449e-01,2.015334e-01,1.574754e-01,4.043406e-02,-1.281220e-01,-2.276983e-01,-1.050050e-01,-2.779009e-02,-4.524955e-03,-1.552536e-04,0,1.713245e-02,9.843823e-02,1.103884e-01,3.371564e-02,-2.820383e-02,-1.442013e-01,-1.575904e-01,-1.526547e-01,-1.331979e-01,-3.225596e-02,4.085558e-02,7.193711e-02,1.653969e-01,2.126650e-01,2.778107e-01,3.688367e-01,4.282351e-01,3.430547e-01,3.443142e-01,3.203785e-01,1.627808e-01,-6.968386e-02,-2.770167e-01,-1.412086e-01,-3.374806e-02,-5.824302e-03,-5.634303e-04,0,2.328077e-02,1.315255e-01,1.216143e-01,-1.322547e-02,-1.447224e-01,-1.635367e-01,-1.389501e-01,-1.460397e-01,-1.252874e-01,-8.146764e-02,2.578367e-03,1.782401e-01,1.791581e-01,2.718298e-01,3.079432e-01,3.844704e-01,4.088323e-01,3.883559e-01,4.408601e-01,3.406826e-01,2.744507e-01,-2.061865e-02,-2.623052e-01,-1.788499e-01,-3.804673e-02,-8.092864e-03,-6.965176e-04,1.661811e-03,4.676965e-02,1.659778e-01,1.234757e-01,-3.084317e-02,-1.175683e-01,-1.257134e-01,-1.440609e-01,-1.691717e-01,-1.649784e-01,-1.284987e-01,7.176891e-02,1.780172e-01,1.482313e-01,1.181160e-01,1.245427e-01,8.935624e-02,1.416585e-01,3.273825e-01,3.956558e-01,3.899991e-01,3.776763e-01,9.433442e-02,-1.852134e-01,-1.768639e-01,-3.980416e-02,-1.047304e-02,-1.041685e-03,3.616550e-03,3.002309e-02,1.565626e-01,1.477792e-01,-2.591769e-02,-1.495096e-01,-1.718255e-01,-1.862334e-01,-2.175148e-01,-2.115651e-01,-8.070443e-02,4.869894e-02,6.829900e-02,-1.849476e-02,-5.344003e-02,4.036859e-02,5.930485e-02,7.996268e-02,1.764197e-01,2.122294e-01,3.221818e-01,4.341350e-01,8.708252e-02,-1.391394e-01,-1.855236e-01,-4.947193e-02,-1.206243e-02,-8.324687e-04,-2.475267e-05,1.390222e-02,1.418535e-01,1.530769e-01,-2.772848e-02,-9.097011e-02,-1.677365e-01,-1.821851e-01,-2.219035e-01,-1.796671e-01,-1.872957e-01,-1.787584e-01,-1.860794e-01,-1.303472e-01,-5.188132e-02,1.221243e-01,1.565319e-01,8.363950e-02,4.197316e-02,1.630882e-01,3.570690e-01,4.116458e-01,4.555273e-02,-1.123123e-01,-1.774151e-01,-4.929776e-02,-1.104650e-02,-1.405528e-03,-1.031361e-06,1.489940e-02,1.211823e-01,1.304332e-01,-7.259435e-03,-8.569866e-02,-1.069552e-01,-1.393910e-01,-2.489184e-01,-2.977868e-01,-3.406952e-01,-3.631829e-01,-2.035262e-01,1.080375e-02,5.166859e-02,9.071965e-02,7.660425e-02,-9.959632e-03,4.893094e-02,1.876905e-01,2.758324e-01,2.660338e-01,7.037927e-02,-1.129013e-01,-1.643158e-01,-4.946236e-02,-9.459421e-03,-9.242645e-04,0,1.303057e-02,1.219678e-01,1.257553e-01,5.879814e-02,-4.946060e-02,-1.043086e-01,-2.017986e-01,-3.024927e-01,-4.043731e-01,-4.025003e-01,-2.829813e-01,-8.037011e-02,3.420358e-02,6.328477e-02,-2.452786e-02,-8.414579e-02,-8.159863e-02,1.140547e-01,2.134685e-01,1.989918e-01,1.985479e-01,3.985618e-02,-1.407806e-01,-1.229646e-01,-4.348014e-02,-1.030675e-02,-5.452588e-04,0,1.278938e-02,9.199119e-02,1.517800e-01,1.365217e-01,3.491544e-02,-7.895942e-02,-1.960562e-01,-3.418304e-01,-4.802895e-01,-4.198478e-01,-2.676721e-01,-1.048226e-01,-8.546723e-02,-1.410815e-01,-1.087481e-01,-1.123270e-01,1.027535e-02,1.681186e-01,1.739252e-01,1.359381e-01,2.031950e-01,-1.157175e-02,-1.314664e-01,-8.618516e-02,-3.421237e-02,-8.578378e-03,-8.628331e-04,0,1.479158e-02,8.954766e-02,1.914461e-01,1.695980e-01,1.231882e-01,-7.871215e-02,-2.310051e-01,-4.354710e-01,-4.930525e-01,-4.027123e-01,-2.438260e-01,-1.281554e-01,-1.235540e-01,-1.424410e-01,-8.031027e-02,1.944592e-02,1.337261e-01,1.849253e-01,1.213130e-01,1.676671e-01,1.464973e-01,-5.771647e-02,-9.754633e-02,-6.560312e-02,-2.779555e-02,-6.505706e-03,-9.245061e-04,0,1.179232e-02,1.024667e-01,2.113355e-01,2.099163e-01,1.829411e-01,-2.171086e-02,-2.320965e-01,-4.053928e-01,-4.491468e-01,-3.576044e-01,-1.967971e-01,-1.490936e-01,-6.054514e-02,-6.445166e-02,-3.024939e-02,6.655627e-02,1.143820e-01,9.593096e-02,1.294206e-01,1.196088e-01,5.397099e-02,-7.223435e-02,-7.664780e-02,-5.560625e-02,-2.063033e-02,-4.143801e-03,-8.106672e-04,0,9.808697e-03,7.662836e-02,1.743158e-01,2.393021e-01,1.577967e-01,-1.173918e-02,-1.800506e-01,-2.944692e-01,-3.284711e-01,-2.515691e-01,-1.072322e-01,-4.367194e-02,-2.772794e-02,-9.205800e-03,4.580955e-02,3.583323e-02,5.891261e-02,5.497808e-02,9.577232e-02,7.397979e-02,-1.270556e-02,-6.675324e-02,-6.487295e-02,-3.750693e-02,-1.146087e-02,-2.359914e-03,-4.004153e-04,0,8.375262e-03,5.795338e-02,1.601665e-01,2.444467e-01,1.405591e-01,-1.323725e-02,-1.477623e-01,-2.279777e-01,-2.499818e-01,-1.890571e-01,-1.969481e-02,9.813668e-02,1.361101e-01,1.244364e-01,1.268605e-01,3.731734e-02,4.363301e-02,5.158332e-02,5.616845e-02,-1.059353e-02,-6.337363e-02,-5.272325e-02,-5.127374e-02,-2.759581e-02,-6.184367e-03,-1.217633e-03,-2.958429e-05,0,6.556887e-03,3.959309e-02,1.360498e-01,2.129107e-01,1.209171e-01,-1.429753e-02,-1.614143e-01,-2.278932e-01,-2.636153e-01,-1.595871e-01,3.885809e-02,2.264139e-01,3.044122e-01,2.854447e-01,1.512018e-01,4.313163e-02,3.028529e-02,1.958539e-02,4.804614e-03,-7.411011e-02,-5.025363e-02,-5.934964e-02,-2.878845e-02,-1.414493e-02,-2.956365e-03,-1.803519e-04,-6.282961e-05,0,1.714365e-03,2.308984e-02,1.094753e-01,1.537542e-01,1.088515e-01,-2.494796e-02,-1.301569e-01,-1.866253e-01,-1.758743e-01,-8.743718e-02,1.009421e-01,2.761030e-01,3.516835e-01,2.774625e-01,1.715814e-01,6.276543e-02,1.770781e-02,-3.658485e-03,-5.356215e-02,-5.936622e-02,-3.985433e-02,-3.841879e-02,-1.492823e-02,-6.126285e-03,-1.406915e-03,-2.209769e-05,-1.460339e-05,0,0,2.378941e-03,6.129694e-02,5.507571e-02,4.383838e-02,-2.613813e-02,-5.061715e-02,-1.148428e-01,-1.306043e-01,-1.041964e-01,-1.960480e-02,9.155562e-02,1.572369e-01,1.347073e-01,8.487564e-02,3.011154e-02,-3.348172e-02,-5.742675e-02,-5.961469e-02,-4.120368e-02,-2.170978e-02,-1.449796e-02,-8.753098e-03,-1.790898e-03,-3.172408e-04,-3.245533e-06,0,0,0,-3.808868e-03,-1.626750e-04,1.175762e-02,-1.136483e-03,-1.927039e-02,-3.510831e-02,-5.944948e-02,-9.369449e-02,-1.041903e-01,-8.100493e-02,-5.217838e-02,-5.303635e-02,-2.819143e-02,-2.048089e-02,-4.403602e-02,-4.640638e-02,-2.792308e-02,-4.203306e-02,-1.851726e-02,-9.519462e-03,-4.087311e-03,-1.906018e-03,-1.670771e-04,-1.879289e-05,-2.185749e-07,0,0,0,0,3.931300e-03,6.745415e-04,2.698468e-03,-1.135605e-02,-1.226405e-02,-2.543690e-02,-3.250808e-02,-3.305824e-02,-3.760360e-02,-3.672368e-02,-4.063001e-02,-4.125389e-02,-4.939515e-02,-4.629810e-02,-2.961392e-02,-1.473022e-02,-1.878216e-02,-4.150846e-03,-8.974655e-04,-1.014422e-04,-4.000659e-05,-2.748978e-05,-2.125317e-05,0,0,0,0,0,0,2.412669e-03,3.456582e-03,-5.721285e-04,-1.945761e-03,-2.376345e-03,-2.303347e-03,-5.649820e-03,-3.294309e-03,-1.969615e-03,-6.669101e-03,-7.230639e-04,-4.010268e-03,-8.373503e-03,-4.028125e-03,-4.382988e-03,-2.445690e-03,-5.780024e-07,-1.025220e-07,-1.892714e-07,0,0,0,0,0 };
